<?xml version="1.0"?>
<opencv_storage>
<opencv_ml_ann_mlp>
  <format>3</format>
  <layer_sizes>
    460 48 34</layer_sizes>
  <activation_function>SIGMOID_SYM</activation_function>
  <f_param1>6.6666666666666663e-01</f_param1>
  <f_param2>1.7159000000000000e+00</f_param2>
  <min_val>-9.4999999999999996e-01</min_val>
  <max_val>9.4999999999999996e-01</max_val>
  <min_val1>-9.7999999999999998e-01</min_val1>
  <max_val1>9.7999999999999998e-01</max_val1>
  <training_params>
    <train_method>BACKPROP</train_method>
    <dw_scale>1.0000000000000001e-01</dw_scale>
    <moment_scale>1.0000000000000001e-01</moment_scale>
    <term_criteria>
      <epsilon>1.0000000000000000e-02</epsilon>
      <iterations>1000</iterations></term_criteria></training_params>
  <input_scale>
    3.8098122210333649e+00 -2.2930245852644648e+00
    4.1810377383072375e+00 -3.1399268417287862e+00
    4.2664268308191478e+00 -3.4208166084184648e+00
    4.3166734260167701e+00 -3.5509923530331724e+00
    4.3117577625426433e+00 -3.5039169296203991e+00
    4.3092338966211532e+00 -3.0448947482381712e+00
    4.5294657109581529e+00 -2.7549928732177311e+00
    4.5473443857387519e+00 -2.6145742657527746e+00
    4.3940069428662500e+00 -2.5042280838350881e+00
    4.2726785845957869e+00 -2.4048584346672079e+00
    4.3175539043175721e+00 -2.4731347027094532e+00
    4.3085532467138492e+00 -2.6228933314006091e+00
    4.2789768050944472e+00 -2.9548621543706601e+00
    4.1994681641088913e+00 -3.0903553816090930e+00
    4.0184201693856636e+00 -3.0278545758075808e+00
    3.9766879096425738e+00 -2.9789116536195923e+00
    3.9760502323600009e+00 -2.8665791566173646e+00
    3.9699765502166917e+00 -2.7190817665929448e+00
    4.0603053605086243e+00 -2.5046211984224755e+00
    4.2216427774283893e+00 -2.4504767041512414e+00
    4.2921533962208152e+00 -2.4082704385819187e+00
    4.3528466645477275e+00 -2.4517932841889385e+00
    4.4105336763872733e+00 -2.5482182214117013e+00
    4.5073334905077216e+00 -2.6934024755226051e+00
    4.5689627250509695e+00 -2.8356579936867146e+00
    4.2767124450779779e+00 -2.9744540582832610e+00
    4.1568378035820910e+00 -3.1329826388065256e+00
    4.0551544215128716e+00 -3.2039395560437325e+00
    3.9568330517776826e+00 -2.9786468004812687e+00
    4.0402321754961275e+00 -2.8155677826400400e+00
    8.6208990524515843e-03 -9.6020080757914705e-01
    9.2778555053155670e-03 -1.1382182285162377e+00
    9.0555933399772675e-03 -1.1678625853195859e+00
    9.4843022689122172e-03 -1.1934711235119055e+00
    9.2865870405492955e-03 -1.1477456804362649e+00
    9.0439494210873394e-03 -1.1541249854761939e+00
    8.6932289886484208e-03 -1.1781933248315204e+00
    8.4823897314858700e-03 -1.2071588205338653e+00
    8.4517869053252637e-03 -1.2409460414727720e+00
    8.4692365933238412e-03 -1.2629574703158433e+00
    8.5351757052626494e-03 -1.2693864757278004e+00
    8.6088961460618289e-03 -1.2620287266167685e+00
    8.7556866967218819e-03 -1.2445178558602306e+00
    9.0402291553239155e-03 -1.2150387051666707e+00
    9.5110402967953072e-03 -1.1888464687218954e+00
    9.9020510306734952e-03 -1.1576138375806360e+00
    9.6841314609294182e-03 -1.0822529596901262e+00
    9.6888779610036727e-03 -1.0186202367402015e+00
    9.5037444564933949e-03 -8.8256243373330123e-01
    1.0409708534529076e-02 -7.8476955634426260e-01
    8.9691323037991086e-03 -1.2363632323176348e+00
    1.0242160555799575e-02 -1.6055369895258336e+00
    1.0582365147349213e-02 -1.8098770114684362e+00
    1.1123096199459497e-02 -1.8967888799050061e+00
    1.0390694852317025e-02 -1.6961648033453463e+00
    9.7866510665689573e-03 -1.5013586264152066e+00
    9.4197759090331231e-03 -1.3773707155081281e+00
    9.2612850882938108e-03 -1.3252572092462973e+00
    9.3005215219209656e-03 -1.3228350596428704e+00
    9.3559876381784386e-03 -1.3388418310233345e+00
    9.3779707282220098e-03 -1.3591548140945855e+00
    9.4071036512021200e-03 -1.3875865236849940e+00
    9.4850381999757524e-03 -1.4372176235342082e+00
    9.7567823907968136e-03 -1.5389028507978255e+00
    1.0367586299802818e-02 -1.7058399597083211e+00
    1.0988860042101759e-02 -1.8458311414484270e+00
    1.1104668654756436e-02 -1.8123276495624761e+00
    1.0926296219070849e-02 -1.6081451319889877e+00
    9.9490364090086825e-03 -1.2238134115490833e+00
    1.0265908374131365e-02 -9.9813011613826541e-01
    9.1219200780801434e-03 -1.2349523693471900e+00
    1.1025155184841220e-02 -1.7835717811787786e+00
    1.0848144719272293e-02 -1.9347027980662177e+00
    1.0815797222953217e-02 -1.7855099789670805e+00
    1.0310963275339089e-02 -1.4637868034747414e+00
    1.0542503823311828e-02 -1.2323380777982686e+00
    1.0849552589636338e-02 -1.0423931023634663e+00
    1.0926460519768049e-02 -9.1927526017667360e-01
    1.0799856303231306e-02 -8.5536767778586631e-01
    1.0667482180922224e-02 -8.3975674726123384e-01
    1.0566700311397089e-02 -8.5652429582971701e-01
    1.0568307916526742e-02 -9.1601741364252875e-01
    1.0606700195525650e-02 -1.0358690588012622e+00
    1.0571739597677092e-02 -1.2270742524430833e+00
    1.0491832187188460e-02 -1.4611357520498121e+00
    1.0681365224587210e-02 -1.7237712862559127e+00
    1.0831311163845418e-02 -1.8652409814472950e+00
    1.0944260204769407e-02 -1.8043994933606935e+00
    1.0392940669492949e-02 -1.4666945817404251e+00
    1.1224037155672929e-02 -1.1891075081459772e+00
    8.8733009535367051e-03 -1.2166652700385836e+00
    1.0174957497676884e-02 -1.5883886738858732e+00
    9.9841824528166430e-03 -1.6347043199511673e+00
    1.0487316118203896e-02 -1.4574716730226458e+00
    1.0453209091596536e-02 -1.1064045439337242e+00
    1.1244961114963540e-02 -8.8503797189470979e-01
    1.1881046884738140e-02 -7.2493954780006931e-01
    1.1738302970530332e-02 -6.2085955876365018e-01
    1.1386460026088308e-02 -5.7523726260031882e-01
    1.1172392803818003e-02 -5.6292429741825356e-01
    1.1183493507736418e-02 -5.7710115762716307e-01
    1.1357659196739842e-02 -6.1872518718239811e-01
    1.1388439418658637e-02 -7.0117951592480132e-01
    1.1119722486634854e-02 -8.3715157791291872e-01
    1.0656755896542818e-02 -1.0348274156737600e+00
    1.0483015266888340e-02 -1.3146811111000354e+00
    1.0284238669897403e-02 -1.5318131516725830e+00
    1.0292482546731027e-02 -1.6079218954578114e+00
    9.8801217437037032e-03 -1.4180241318379547e+00
    1.0830421721720959e-02 -1.1983925343447310e+00
    8.5714951844015619e-03 -1.1834814662782960e+00
    9.6048666340240816e-03 -1.4521315367903538e+00
    9.7130268006309344e-03 -1.4887270448230572e+00
    1.0758619428514110e-02 -1.3429921346617526e+00
    1.0390922973128359e-02 -9.4914969051896314e-01
    1.0413388208808548e-02 -7.2454517500147142e-01
    1.0707493294783259e-02 -6.2566402731605586e-01
    1.0911973779876943e-02 -5.8461220466096009e-01
    1.0923369356584585e-02 -5.7024485899341892e-01
    1.0841962016933271e-02 -5.6773615220435281e-01
    1.0735066277726538e-02 -5.7919471415256218e-01
    1.0592775209670991e-02 -6.0440506033110375e-01
    1.0449608808651981e-02 -6.5066640637120399e-01
    1.0279737252823697e-02 -7.1621952892555873e-01
    1.0067499626251327e-02 -8.1850548579004390e-01
    1.0099340552317902e-02 -1.0087399567311925e+00
    1.0077910062029025e-02 -1.2414977405413556e+00
    1.0134552631102080e-02 -1.4190281364038180e+00
    9.5837461528061017e-03 -1.3220552317886538e+00
    1.0243859090815773e-02 -1.1459624390911649e+00
    8.3789680675521901e-03 -1.1200265191991923e+00
    9.2232155053116067e-03 -1.3460089437407485e+00
    9.4508113519127038e-03 -1.3916542087723265e+00
    1.0949457306213160e-02 -1.3064892457773543e+00
    1.0594485569154143e-02 -9.3241444289092135e-01
    1.0266501596633809e-02 -7.1902349799812815e-01
    1.0230905437731632e-02 -6.4204949801435252e-01
    1.0388173986760431e-02 -6.3189429154289567e-01
    1.0429536003890318e-02 -6.3999313932578250e-01
    1.0222527442376401e-02 -6.3867344834249407e-01
    9.9255089985870824e-03 -6.4297447292847121e-01
    9.7377643878757813e-03 -6.6528979107637221e-01
    9.7676334858298481e-03 -7.0169529828850363e-01
    9.8433388377159522e-03 -7.2378649493657032e-01
    9.8982376017120698e-03 -7.5159064857611813e-01
    1.0080623600271201e-02 -8.5811011908379176e-01
    1.0139003601304550e-02 -1.0502576342207799e+00
    1.0098471250861532e-02 -1.2379834711975282e+00
    9.3462952837904990e-03 -1.1835708521731876e+00
    9.7676124374328852e-03 -1.0491852171396661e+00
    8.4193337846115556e-03 -1.0738464038329234e+00
    9.2032038173285972e-03 -1.3225328704459454e+00
    9.3399578535222367e-03 -1.3868903416695171e+00
    1.0813632938450017e-02 -1.3151731208559472e+00
    1.0753939685502215e-02 -9.6576704222683718e-01
    1.0640798797751204e-02 -7.5576586425698455e-01
    1.0458305289151617e-02 -6.7835028883152482e-01
    1.0285253773328656e-02 -6.7782242425947214e-01
    1.0043240636789314e-02 -6.9446645887954150e-01
    9.6723933693518820e-03 -6.9130871268021277e-01
    9.3855742294979526e-03 -6.9475333002354267e-01
    9.3082359335103157e-03 -7.1688200356865006e-01
    9.4740004841817466e-03 -7.3633603645498913e-01
    9.7015523820728616e-03 -7.2672616855452143e-01
    1.0031174794038505e-02 -7.3857179732083389e-01
    1.0318469418961494e-02 -8.2857916403050147e-01
    1.0170934689841362e-02 -9.7931742096551366e-01
    9.8521859483912382e-03 -1.1253456560427424e+00
    9.0235342082832064e-03 -1.0815979659339181e+00
    9.4129548564932542e-03 -9.8204804314567262e-01
    8.5255954199867732e-03 -1.0159249954140122e+00
    9.3523358553871394e-03 -1.3243842804813730e+00
    9.3253470729471339e-03 -1.4226968914419276e+00
    1.0435283578243413e-02 -1.3534685569023803e+00
    1.0598023025777271e-02 -1.0472592306201600e+00
    1.1067422900877496e-02 -8.5389724854405546e-01
    1.1071073153260280e-02 -7.6010732072298826e-01
    1.0571094209863869e-02 -7.4432939818864996e-01
    9.9895865151848270e-03 -7.5331471911008774e-01
    9.5752664278668919e-03 -7.5943691043277706e-01
    9.3441913560821082e-03 -7.6847179370734320e-01
    9.2774595013180340e-03 -7.8550066666012430e-01
    9.4963228091745240e-03 -8.0079138606424349e-01
    9.8486987139035139e-03 -8.0048485140952375e-01
    1.0373869186204277e-02 -8.2559522577007949e-01
    1.0590386738600641e-02 -9.0215766842584066e-01
    1.0117340479074470e-02 -9.9902190716432759e-01
    9.7059991455901544e-03 -1.0996668655503161e+00
    8.9557871587079355e-03 -1.0446135504118803e+00
    9.3663664181726693e-03 -9.4976608368462312e-01
    8.5910941987406425e-03 -9.4880549689373928e-01
    9.4682814180000029e-03 -1.3049018362968463e+00
    9.3379373048262226e-03 -1.4479240797734632e+00
    1.0114011849154997e-02 -1.4184306676566405e+00
    1.0131498125903384e-02 -1.1717017985559466e+00
    1.0542349536297645e-02 -1.0067943807164250e+00
    1.0786823019992833e-02 -9.2334570532137472e-01
    1.0663118581599145e-02 -9.2057211684023432e-01
    1.0293604328165111e-02 -9.4645453254519551e-01
    9.9077302347431659e-03 -9.6978611960648708e-01
    9.6673440891043971e-03 -9.8877026676060420e-01
    9.6041765196600692e-03 -1.0131502305745403e+00
    9.7347941210754966e-03 -1.0440738485337959e+00
    1.0087786223499188e-02 -1.0780223737863963e+00
    1.0599504394361048e-02 -1.1190021489178659e+00
    1.0699405158361132e-02 -1.1639945809458478e+00
    1.0391685640552061e-02 -1.2113587951191536e+00
    1.0162846963035816e-02 -1.2428324895454670e+00
    9.3151673933795191e-03 -1.1015295032875909e+00
    9.6040342352034097e-03 -9.6514894631891213e-01
    8.6293044670091093e-03 -8.9642737621725976e-01
    9.4060265287128179e-03 -1.2509517317077705e+00
    9.2298155117688085e-03 -1.4219725242593138e+00
    9.9032135334451762e-03 -1.4650814101378793e+00
    9.7718270026010152e-03 -1.2915941081355549e+00
    9.7581573125566159e-03 -1.1394313289245521e+00
    9.9850970488349206e-03 -1.0796826703040205e+00
    1.0318040662969126e-02 -1.1288057874001907e+00
    1.0398872773793186e-02 -1.2053027582904452e+00
    1.0222425405979353e-02 -1.2564262802660917e+00
    1.0084484784710452e-02 -1.3027552688380097e+00
    1.0167717789568625e-02 -1.3743464895741333e+00
    1.0278757349231166e-02 -1.4376293271584384e+00
    1.0338565106293723e-02 -1.4574214415253401e+00
    1.0236994306775993e-02 -1.4335224433459839e+00
    1.0144948840230972e-02 -1.4279373549642984e+00
    1.0236187791025133e-02 -1.4516720673754409e+00
    1.0339257974913743e-02 -1.4316162326217476e+00
    9.5073738175587754e-03 -1.2038460430706277e+00
    9.7214983770536612e-03 -1.0179037838905463e+00
    8.6302030473837700e-03 -8.6268524979653749e-01
    9.3095174877450577e-03 -1.1942029985809060e+00
    9.1250760251109665e-03 -1.3638338627130850e+00
    9.7334881389855160e-03 -1.4244158310029151e+00
    9.5667799605397060e-03 -1.2801871016960564e+00
    9.4498384205800989e-03 -1.1329855980712096e+00
    9.5715104537019702e-03 -1.0666040825584124e+00
    9.8595000028685841e-03 -1.1006333844378722e+00
    9.9319989748075464e-03 -1.1563300594657995e+00
    9.8017772110525186e-03 -1.2020495969043765e+00
    9.6737246839229234e-03 -1.2565770034575952e+00
    9.7491271966447749e-03 -1.3360490649317194e+00
    9.9187523745251534e-03 -1.4124711800539240e+00
    9.9190523830347006e-03 -1.4337115009172274e+00
    9.8750375837061283e-03 -1.4310497847112298e+00
    1.0014206227232059e-02 -1.4596765903908901e+00
    1.0191969013099654e-02 -1.4895682618162946e+00
    1.0287198528783244e-02 -1.4726790336210958e+00
    9.4927354647098439e-03 -1.2537558284825716e+00
    9.6311687244617968e-03 -1.0613491280423226e+00
    8.7006042146145924e-03 -8.4827820291004763e-01
    9.2556085254623926e-03 -1.1649653337707289e+00
    8.9306980058705444e-03 -1.3044755376069015e+00
    9.4299539659679632e-03 -1.3136314166815501e+00
    9.4518270843730184e-03 -1.1514104556217513e+00
    9.8392103358517814e-03 -1.0108631065930547e+00
    1.0387425800701882e-02 -9.3445282503114124e-01
    1.0682910213147120e-02 -9.2439222074362026e-01
    1.0516148575375575e-02 -9.3413710601111188e-01
    1.0136242248276814e-02 -9.5831015462929081e-01
    9.7299082998858963e-03 -9.8834691467599778e-01
    9.6221806697402764e-03 -1.0335354060556321e+00
    9.7620964859811837e-03 -1.0959848300714099e+00
    9.9408101312048660e-03 -1.1477834803550278e+00
    1.0153547677056509e-02 -1.1885384550256100e+00
    1.0311265576607630e-02 -1.2399114892360499e+00
    1.0182687284195387e-02 -1.2881578599791126e+00
    1.0008191569167570e-02 -1.3359993797396903e+00
    9.1944768018342050e-03 -1.2123134003849030e+00
    9.3059750528479666e-03 -1.0711341508917178e+00
    8.7507944727489330e-03 -8.3940709098304023e-01
    9.3068201614585760e-03 -1.1717998281288693e+00
    8.8473430636006080e-03 -1.2911812467018726e+00
    9.3457241826585390e-03 -1.2472913443872353e+00
    9.6946438784348155e-03 -1.0509963428611184e+00
    1.0642343725053379e-02 -8.8790951758777703e-01
    1.1263711890102130e-02 -7.6240752927663058e-01
    1.1094243788132757e-02 -7.0097347868877391e-01
    1.0547151310849110e-02 -6.9347519868832896e-01
    1.0107426194245442e-02 -7.1970225493365669e-01
    9.8492435231541161e-03 -7.5654936337677103e-01
    9.6361719253295636e-03 -7.8407263621835999e-01
    9.5928981935479232e-03 -8.2375345364254082e-01
    9.7589003553135156e-03 -8.7442043395457414e-01
    1.0018423769920326e-02 -9.2500106667674364e-01
    1.0172119963581061e-02 -9.8698883286631323e-01
    1.0055096802206714e-02 -1.0841878553165265e+00
    9.9084407287955163e-03 -1.2239663692499247e+00
    8.9511326343009075e-03 -1.1703711226791194e+00
    8.9649860981613327e-03 -1.0736836497644406e+00
    8.7893687817253534e-03 -8.2911666783094384e-01
    9.3981672263729315e-03 -1.1810068636679980e+00
    8.9050463502052465e-03 -1.2993353129584475e+00
    9.5081791638354108e-03 -1.2377467983152590e+00
    1.0008037267685727e-02 -1.0168106993161241e+00
    1.1071824155035596e-02 -8.3777236962285240e-01
    1.1268654601537427e-02 -6.8371567501775254e-01
    1.0670156553652450e-02 -6.0563808598531310e-01
    1.0246543931011856e-02 -6.0775868482101092e-01
    1.0075176300651226e-02 -6.4148054848816904e-01
    9.9017722262164237e-03 -6.7369910855607207e-01
    9.7616727826826590e-03 -7.0358117905254325e-01
    9.6440794633235287e-03 -7.4135173432151891e-01
    9.5576216289603375e-03 -7.8317962692885990e-01
    9.6311611562307498e-03 -8.2553781120077641e-01
    9.8459454762644810e-03 -8.8569492118368787e-01
    1.0113194260263523e-02 -1.0193207473675610e+00
    1.0277218481644004e-02 -1.2250504884346016e+00
    9.0912412501778193e-03 -1.1895568308519435e+00
    8.8854145659748741e-03 -1.1030458176490221e+00
    8.8877628278153428e-03 -8.2738798212023557e-01
    9.6152714664482723e-03 -1.2091203869058702e+00
    9.1816498843214616e-03 -1.3542555511437744e+00
    9.9154531948008016e-03 -1.3112895219147742e+00
    1.0207891809440742e-02 -1.0547154096048625e+00
    1.0895536395842858e-02 -8.3511722818512946e-01
    1.0830639106238568e-02 -6.5601181066487002e-01
    1.0490791794759551e-02 -5.7955453612049601e-01
    1.0528315985926502e-02 -5.9081193436789203e-01
    1.0499745444603154e-02 -6.1890440707170802e-01
    1.0141609593837881e-02 -6.3259184689469117e-01
    9.9244918215123743e-03 -6.6137981085831576e-01
    9.7402884235240784e-03 -7.1137337063994266e-01
    9.5001361585005106e-03 -7.6323535065854375e-01
    9.3990538824159243e-03 -8.0344218357936315e-01
    9.5405130613926137e-03 -8.5475140136968442e-01
    1.0033109035152286e-02 -1.0014400237716148e+00
    1.0508479118260489e-02 -1.2488709286222106e+00
    9.1974320218608466e-03 -1.2229825359468367e+00
    8.8710041593733895e-03 -1.1463633398516375e+00
    9.1398474243980544e-03 -8.7344145454134325e-01
    1.0203735315741532e-02 -1.3394083217139237e+00
    9.9073643113748600e-03 -1.5531833309555965e+00
    1.0689139901401898e-02 -1.5489758385708565e+00
    1.0326336484181008e-02 -1.2027934507306670e+00
    1.0490191275687894e-02 -9.0479750963033201e-01
    1.0639999075528638e-02 -6.9688238650921219e-01
    1.0921824758378348e-02 -6.1030514289538307e-01
    1.1307933512705561e-02 -6.0500104983213032e-01
    1.1133778719474656e-02 -6.1091698761917401e-01
    1.0477545768899948e-02 -6.1252965217432498e-01
    1.0036081141397611e-02 -6.4366701579210683e-01
    9.7695873663035636e-03 -7.0216323128062841e-01
    9.5250193146372703e-03 -7.6415307894558193e-01
    9.4156962989427658e-03 -8.1073022185314425e-01
    9.4768764922134995e-03 -8.6333229917418830e-01
    9.8251272977319063e-03 -1.0110344963698419e+00
    1.0308884568230644e-02 -1.2686537833146851e+00
    9.2195891427160198e-03 -1.2681870263069746e+00
    8.9437771612343401e-03 -1.1972403160297738e+00
    9.2747415713454791e-03 -8.8541047624332814e-01
    1.0578956178014000e-02 -1.4460188512265371e+00
    1.0407491522982159e-02 -1.7540786212834130e+00
    1.1098050986635901e-02 -1.8115218060180056e+00
    1.0262872317575873e-02 -1.4109215752691822e+00
    1.0232364989724458e-02 -1.0553661250401805e+00
    1.0547938775158517e-02 -7.9275205499157542e-01
    1.1087860046775953e-02 -6.6046468936274905e-01
    1.1265100450478144e-02 -6.1438532550972447e-01
    1.0690667133113865e-02 -6.0839328929005931e-01
    9.9604974965990245e-03 -6.2059172608368940e-01
    9.5725497991974214e-03 -6.4891751997594671e-01
    9.4719573563275834e-03 -6.9205463489102148e-01
    9.5478731530195139e-03 -7.5006968210926828e-01
    9.7104210540450205e-03 -8.2093041993373550e-01
    9.7697799833484471e-03 -9.0953778180273059e-01
    9.7360895633005137e-03 -1.0635131527798698e+00
    9.9626285186999713e-03 -1.3144223237995392e+00
    9.2707909521156061e-03 -1.3465060381045979e+00
    9.2325139424670449e-03 -1.2592877472997330e+00
    9.8209068224208093e-03 -7.9234498542889764e-01
    1.0960091319927152e-02 -1.3998937816190482e+00
    1.0378154547779682e-02 -1.7318209637783739e+00
    1.1005516140243416e-02 -1.8963086954611537e+00
    1.0283928206243253e-02 -1.5972815808851026e+00
    1.0325378159077719e-02 -1.2640935317528772e+00
    1.0734307640743472e-02 -9.6889755054934246e-01
    1.1508727964186539e-02 -7.9563898320408910e-01
    1.1732445071474286e-02 -7.0608615015443188e-01
    1.0952157314911715e-02 -6.7546463872896101e-01
    1.0076825642164220e-02 -6.7586455090894515e-01
    9.7386683008307013e-03 -6.9285469194839411e-01
    9.8380043417005143e-03 -7.2824959080231444e-01
    1.0185480796507614e-02 -7.8974024074615590e-01
    1.0497982697618449e-02 -9.0835956640522553e-01
    1.0338599091440168e-02 -1.0684759715137093e+00
    9.8477964614416269e-03 -1.2312062705381197e+00
    9.7978545609773426e-03 -1.4369302961374995e+00
    9.5350319518925277e-03 -1.4692811176787428e+00
    9.9330005467754712e-03 -1.3316063674177234e+00
    1.0376811505190939e-02 -6.7202672910323624e-01
    1.0955296474817763e-02 -1.1685112548801946e+00
    1.0163671920796946e-02 -1.4741270181313058e+00
    1.0890588937108680e-02 -1.7692594538075301e+00
    1.0362743197941471e-02 -1.6731197508892868e+00
    1.0106279199062852e-02 -1.4598520303046290e+00
    1.0117460341309675e-02 -1.2589155902691629e+00
    1.0528598184921011e-02 -1.1422414237890304e+00
    1.0872523510465562e-02 -1.0824620450998865e+00
    1.0748159904911200e-02 -1.0554882700032886e+00
    1.0325815908827831e-02 -1.0427737785857321e+00
    1.0173533891137097e-02 -1.0595256793083232e+00
    1.0269107807032924e-02 -1.0996885517968999e+00
    1.0449282307253126e-02 -1.1677687642020500e+00
    1.0559329782949729e-02 -1.2861201561928164e+00
    1.0572464772758410e-02 -1.4515807560089542e+00
    1.0417697639783655e-02 -1.5921244741732659e+00
    1.0614237188718983e-02 -1.7359897105596624e+00
    1.0578793855641078e-02 -1.6766703751000451e+00
    1.1105310671575618e-02 -1.4365045980467519e+00
    1.0315646556378087e-02 -5.7146254711380162e-01
    1.0365716437030043e-02 -8.6789094987124016e-01
    9.4669066157199930e-03 -1.0649601690453294e+00
    1.0119642950084174e-02 -1.3665327730547785e+00
    9.8013756852594579e-03 -1.4486490917964570e+00
    9.4967795242724019e-03 -1.4232488292573251e+00
    9.0379829530516653e-03 -1.3419118607240657e+00
    8.8844760606750159e-03 -1.3098696625996493e+00
    8.9654272493939254e-03 -1.3330799252738526e+00
    9.0791884503654031e-03 -1.3833371964922037e+00
    9.0841741463351042e-03 -1.4201663497195225e+00
    9.0583594109934825e-03 -1.4333255233883480e+00
    9.0344536540564475e-03 -1.4299786387485569e+00
    9.0406584590461934e-03 -1.4279188232624695e+00
    9.1149960786586770e-03 -1.4440084023059059e+00
    9.2637404554840163e-03 -1.4739428453538788e+00
    9.7263067640095489e-03 -1.5374830810423494e+00
    1.0270636944740707e-02 -1.5698970647593369e+00
    9.6223512977347929e-03 -1.3442198354669677e+00
    9.7739597426199920e-03 -1.1507860200960778e+00 1. 0. 1. 0. 1. 0. 1.
    0. 1. 0. 1. 0. 1. 0. 1. 0. 1. 0. 1. 0. 1. 0. 1. 0. 1. 0. 1. 0. 1. 0.
    1. 0. 1. 0. 1. 0. 1. 0. 1. 0. 1. 0. 1. 0. 1. 0. 1. 0. 1. 0. 1. 0. 1.
    0. 1. 0. 1. 0. 1. 0.</input_scale>
  <output_scale>
    4.2105261824632950e-01 4.9999998882412910e-01 4.2105261824632950e-01
    4.9999998882412910e-01 4.2105261824632950e-01 4.9999998882412910e-01
    4.2105261824632950e-01 4.9999998882412910e-01 4.2105261824632950e-01
    4.9999998882412910e-01 4.2105261824632950e-01 4.9999998882412910e-01
    4.2105261824632950e-01 4.9999998882412910e-01 4.2105261824632950e-01
    4.9999998882412910e-01 4.2105261824632950e-01 4.9999998882412910e-01
    4.2105261824632950e-01 4.9999998882412910e-01 4.2105261824632950e-01
    4.9999998882412910e-01 4.2105261824632950e-01 4.9999998882412910e-01
    4.2105261824632950e-01 4.9999998882412910e-01 4.2105261824632950e-01
    4.9999998882412910e-01 4.2105261824632950e-01 4.9999998882412910e-01
    4.2105261824632950e-01 4.9999998882412910e-01 4.2105261824632950e-01
    4.9999998882412910e-01 4.2105261824632950e-01 4.9999998882412910e-01
    4.2105261824632950e-01 4.9999998882412910e-01 4.2105261824632950e-01
    4.9999998882412910e-01 4.2105261824632950e-01 4.9999998882412910e-01
    4.2105261824632950e-01 4.9999998882412910e-01 4.2105261824632950e-01
    4.9999998882412910e-01 4.2105261824632950e-01 4.9999998882412910e-01
    4.2105261824632950e-01 4.9999998882412910e-01 4.2105261824632950e-01
    4.9999998882412910e-01 4.2105261824632950e-01 4.9999998882412910e-01
    4.2105261824632950e-01 4.9999998882412910e-01 4.2105261824632950e-01
    4.9999998882412910e-01 4.2105261824632950e-01 4.9999998882412910e-01
    4.2105261824632950e-01 4.9999998882412910e-01 4.2105261824632950e-01
    4.9999998882412910e-01 4.2105261824632950e-01 4.9999998882412910e-01
    4.2105261824632950e-01 4.9999998882412910e-01</output_scale>
  <inv_output_scale>
    2.3750000752043001e+00 -1.1875000110594558e+00
    2.3750000752043001e+00 -1.1875000110594558e+00
    2.3750000752043001e+00 -1.1875000110594558e+00
    2.3750000752043001e+00 -1.1875000110594558e+00
    2.3750000752043001e+00 -1.1875000110594558e+00
    2.3750000752043001e+00 -1.1875000110594558e+00
    2.3750000752043001e+00 -1.1875000110594558e+00
    2.3750000752043001e+00 -1.1875000110594558e+00
    2.3750000752043001e+00 -1.1875000110594558e+00
    2.3750000752043001e+00 -1.1875000110594558e+00
    2.3750000752043001e+00 -1.1875000110594558e+00
    2.3750000752043001e+00 -1.1875000110594558e+00
    2.3750000752043001e+00 -1.1875000110594558e+00
    2.3750000752043001e+00 -1.1875000110594558e+00
    2.3750000752043001e+00 -1.1875000110594558e+00
    2.3750000752043001e+00 -1.1875000110594558e+00
    2.3750000752043001e+00 -1.1875000110594558e+00
    2.3750000752043001e+00 -1.1875000110594558e+00
    2.3750000752043001e+00 -1.1875000110594558e+00
    2.3750000752043001e+00 -1.1875000110594558e+00
    2.3750000752043001e+00 -1.1875000110594558e+00
    2.3750000752043001e+00 -1.1875000110594558e+00
    2.3750000752043001e+00 -1.1875000110594558e+00
    2.3750000752043001e+00 -1.1875000110594558e+00
    2.3750000752043001e+00 -1.1875000110594558e+00
    2.3750000752043001e+00 -1.1875000110594558e+00
    2.3750000752043001e+00 -1.1875000110594558e+00
    2.3750000752043001e+00 -1.1875000110594558e+00
    2.3750000752043001e+00 -1.1875000110594558e+00
    2.3750000752043001e+00 -1.1875000110594558e+00
    2.3750000752043001e+00 -1.1875000110594558e+00
    2.3750000752043001e+00 -1.1875000110594558e+00
    2.3750000752043001e+00 -1.1875000110594558e+00
    2.3750000752043001e+00 -1.1875000110594558e+00</inv_output_scale>
  <weights>
    <_>
      -2.2643210904138092e-01 3.7674495067665553e-01
      3.4046374221488651e-01 1.0329800627569343e+00
      1.9388853739274051e-01 2.3935517239578818e-02
      2.2055603836949229e-02 -9.9141302658947814e-02
      -6.7625829976221052e-01 -8.5500664064199361e-01
      -8.7937783540948236e-02 1.0738478604833812e+00
      2.7718637782551320e-01 -6.5729952944981007e-01
      1.2677801258892085e-01 -8.9776986354341226e-02
      -2.6479729551687542e-01 1.8007538740637308e-01
      4.2970859822560999e-02 5.9170308348917744e-01
      -1.4263255026305982e-01 7.3548285914663247e-01
      1.1307121867233090e-01 2.1159216935663863e-01
      1.7689538738668248e-01 -2.8097742938184617e-01
      1.6760365878374969e-02 -4.8883363535668067e-01
      -9.2019877054069976e-01 1.2376159266272011e+00
      -5.6461883112845845e-01 4.3133807434235560e-01
      -2.2039750425613794e-01 1.5458905224601905e-02
      -2.7126902108390877e-01 2.8254133140521126e-01
      7.4439783106267310e-01 2.8563454148009948e-01
      2.9573413151182298e-01 -2.1804689533252603e-01
      -4.0367397863659643e-02 -4.4352660334975735e-01
      -1.0002955324945286e+00 -2.3906550722461362e-01
      3.5288428380525450e-01 -9.3441862828649380e-01
      -4.8603364920933378e-01 1.3023624073754742e-01
      9.3627668677919822e-03 6.4813728887510780e-01
      8.0436029861379287e-03 1.7483271722649960e+00
      -1.1390873639566619e-01 -2.1258124247347587e-02
      8.2161720108174408e-01 -7.2051059811432683e-01
      -4.3452771224182540e-01 -1.2167229999037179e+00
      2.0235649863120018e+00 1.6341980235421736e+00
      1.3700406916707142e+00 5.2380733167442871e-02
      -3.3688897315531979e-01 2.8991609629545445e-01
      -3.2560649088395682e-01 3.3971657565882390e-01
      3.9377958421470974e-02 1.0116952357599300e+00
      1.1677329206258931e-01 1.0949660652235982e+00
      -8.2484886414144434e-02 8.4910502196405147e-01
      1.6020596145051821e-01 1.4787105341137878e+00
      -1.7688159670845208e-02 -1.1342302746267523e+00
      -1.1180826412603266e+00 2.2836992188583531e+00
      -1.1754799328613990e+00 -1.7856816123404760e-02
      -8.3060023222130530e-01 -2.5026527837914730e-01
      -5.5590806819662286e-01 1.4170352389177847e+00
      8.6338707175763518e-01 5.3864212228571351e-01
      3.4796754366134014e-01 -5.9501371533647492e-02
      -3.8801158242219563e-01 -5.2169407409018875e-01
      -1.4320466037029638e+00 -1.2514191282682582e-01
      4.3886117304156069e-01 -1.1952439955704950e+00
      -7.6878588871885467e-01 -1.1124071336202445e-02
      2.5072368914171494e-01 8.5734738187094017e-01
      -6.0941924573026485e-01 1.8302014760037464e+00
      -8.2928860119215006e-02 -1.9430972688569978e-01
      7.1503379682549884e-01 -9.5113591337715120e-01
      -1.4294990104797461e-01 -1.0522769403248511e+00
      1.7331156002364467e+00 1.7527457557683970e+00
      1.3627790727625217e+00 4.7856014036941569e-01
      -4.7049390682265768e-01 2.1675980408309289e-01
      -5.2685653916129893e-01 3.1034278604828919e-01
      -1.1171753819766163e-01 9.1172034904502064e-01
      3.4661894716769109e-01 1.2809024617705911e+00
      2.3875608209852676e-02 8.8009252312164032e-01
      1.7483841340461168e-01 1.4253299425603876e+00
      1.2775948920489527e-01 -1.2672612958794565e+00
      -1.0570258444256060e+00 2.4454041778166435e+00
      -1.3154733346921286e+00 -5.0921315835475559e-02
      -7.3373807753770659e-01 -3.3635139157026989e-01
      -8.3969501967795868e-01 1.3110007078848269e+00
      9.3300326627190155e-01 8.3916320681877421e-01
      5.0161000773633613e-01 -3.5326512383680189e-02
      -6.6063186530919615e-01 -5.6809525464921684e-01
      -1.7097308068139958e+00 8.7630257105919568e-02
      6.1662681275577169e-01 -9.6291365518549998e-01
      -5.6600146321830758e-01 2.0442249970747151e-01
      3.6859288065748264e-01 8.7170339016823073e-01
      -8.1111398126451129e-01 1.6995222981704277e+00
      -8.4322716255993538e-02 -2.4894353299110319e-01
      5.8360799196795343e-01 -9.7890581389754106e-01
      1.2270013487950368e-01 -8.7421580014670608e-01
      1.6744689841506128e+00 1.8056679566933436e+00
      1.2373679303285283e+00 8.1444279961582022e-01
      -6.9590984269636758e-01 1.2073608132786333e-01
      -8.9569823308970808e-01 2.0008220803230636e-01
      1.6814262491809714e-01 6.9058271746751976e-01
      3.9837488364397872e-01 1.1768397286563554e+00
      2.1016185180510221e-02 9.0749990527173441e-01
      2.2925868419070375e-01 1.2010848462099264e+00
      1.4186939788688757e-01 -1.1942778560199241e+00
      -1.0567940886023024e+00 2.5036442791212670e+00
      -1.0745797072372114e+00 4.3785189664282370e-01
      -4.8511514700032654e-01 -3.3978661344174932e-01
      -7.7018757837929974e-01 1.1999766658353830e+00
      1.0889096139230838e+00 9.5875104938184441e-01
      4.6099303397406527e-01 -1.7966493411048653e-02
      -6.2419317628866011e-01 -5.8033603708783865e-01
      -1.4433240891359922e+00 7.6533943338761581e-02
      6.6137638309952085e-01 -7.2969569244028976e-01
      -6.6730149999341615e-01 2.1188460658474274e-02
      3.1082262121874571e-01 1.0837342743744409e+00
      -3.0260906851162134e-01 9.3702739584995565e-01
      -4.9968371574037086e-03 -3.9911343524674880e-01
      1.5309544798549860e-01 -5.5262972972179070e-01
      3.9627180997930875e-02 -4.7169031783823356e-01
      9.4185049120316744e-01 1.5716859254725801e+00
      8.4049014401744426e-01 9.9379293073227737e-01
      -2.4932015646776132e-01 -3.3817372777241145e-02
      -1.1365543404993714e+00 4.7428717944613152e-01
      2.2066091648409739e-01 4.0194423743910340e-01
      5.0732046156608357e-01 6.4052429134875366e-01
      3.2352456722167428e-01 9.7440176967394032e-01
      6.5792853749527244e-02 6.3817049330823583e-01
      1.2295400026667493e-01 -1.0250970135241397e+00
      -6.3225656631996485e-01 1.9155950180765824e+00
      -8.1253494867054687e-01 4.2344311707049026e-01
      -5.1413112185073251e-01 -4.9895240859775952e-01
      -4.5647770441908825e-01 3.0980557459738634e-01
      1.0348000027632425e+00 5.7028666110264326e-01
      1.2323039792354493e-01 3.0801055042009973e-01
      -7.0000202835560843e-01 -7.5515146161433300e-01
      -1.3020522046586578e+00 3.4400499369596527e-01
      1.2282713929554943e-01 -5.7119482215889228e-01
      -5.7412080646875696e-01 1.8516115272121403e-01
      7.2029934860272438e-01 7.9498975424234020e-01
      -3.5756365547731189e-01 4.6357865657544722e-01
      2.3863951869919603e-01 -2.8923422374239314e-02
      -1.1570575532712532e-01 -4.6808935508329158e-01
      1.6874312064700153e-01 -5.4300655319839930e-01
      4.0091830080336616e-01 6.8205443903279250e-01
      -3.7894072703455663e-02 8.9388769152234360e-01
      -1.0358349922345846e+00 -6.4369814483933196e-01
      2.0094356274992514e-01 1.6844310855380126e-01
      -5.3798305635327415e-01 -3.4195579668622716e-01
      6.8057444155703339e-01 7.3753499824120966e-02
      -6.4727483792606433e-01 3.2137451308107717e-01
      -3.2559687085125116e-01 -4.5085561638559318e-01
      2.6724022742807732e-02 -5.6208287438788007e-01
      -4.5434117519589079e-01 8.8943541157615924e-01
      -5.3005737591375934e-01 -1.1747953429908825e-01
      -4.7659650264012560e-01 1.5140942014178113e-01
      -2.2290779202311102e-02 1.4362957445728366e+00
      -2.3776631683480606e-01 5.0066463342818057e-01
      -1.1499670930132076e-01 -6.2816467136705301e-02
      -2.2917971636332643e-01 -5.6950720759254714e-01
      -6.4333002940010664e-01 -6.8544600545228235e-02
      1.0436842731493781e+00 -6.1143560722744983e-01
      4.3877982393483776e-02 -1.6778304586959014e-01
      3.2905650997207991e-01 9.2137957568298634e-01
      -1.2275281800540132e+00 4.3716827821958931e-03
      4.6106241773293027e-01 1.2612454352302560e-01
      4.9281649148451784e-01 -4.9208058173676356e-01
      2.0457508925009185e-01 -1.7361657410891818e-01
      -5.3649085151228537e-01 -1.3758235270558811e-01
      -4.3919474646665274e-01 -2.5497669090293118e-01
      -4.0571164059242326e-01 -1.1037756328077819e+00
      -4.3657404797406579e-01 1.9625009024571366e-01
      -6.3550365793269148e-01 -5.3027477012254443e-01
      1.2433433399099056e+00 1.3639778576547341e-02
      -6.0155904346972155e-01 4.7151963260333579e-01
      1.7800264842470884e-01 -1.0546108168815256e+00
      4.1308770819459594e-03 -4.1212420581795245e-01
      -1.8644920242642182e-01 1.5188305683546390e+00
      -8.2650230683467252e-01 2.1383704363922189e+00
      5.5977705861092034e-02 -1.5540588668251781e-01
      4.8131194687746853e-01 -6.7430550993591576e-01
      -1.9456809599201086e-01 1.0008980565899954e+00
      -2.9065127947703268e-01 -5.2914959524804950e-01
      -1.6070464211573496e-01 -1.0593069783975444e+00
      -1.4497210063875958e+00 9.1815233067475036e-02
      -1.9375951659707824e-01 -2.9790219484279379e-01
      -6.9762442047930462e-01 -5.4668905886377173e-01
      3.3121131144537252e-01 1.0121482913980422e+00
      -8.3185645020846988e-01 -7.7471698118817656e-02
      7.9373561874206455e-01 1.5895220402277538e-01
      5.9290414452506690e-01 -2.4835605826857252e-01
      2.8427173848552317e-01 -4.1596228537119542e-02
      -8.3875396932619473e-01 -2.5293863002666594e-01
      -4.2804161633553134e-01 -6.1558177973975536e-01
      -1.0002856032689038e+00 -7.2881235851623249e-01
      -3.0044139193883779e-01 1.1501908882440026e+00
      -4.1509796816727829e-01 -5.8722068432773100e-01
      1.2849082127317930e+00 -2.9043673996596914e-01
      -5.7953785321799756e-01 3.6189717826567136e-01
      3.7021419894710289e-01 -1.2736488842790068e+00
      -2.7641949558681572e-02 -3.6066558807421817e-01
      -4.8835018288177279e-01 8.0466423012467436e-01
      -7.0959469601703362e-01 1.1639030515427569e+00
      3.1081470292520968e-01 1.4620741841436602e-02
      8.6050491120209893e-01 -4.8399768093898982e-01
      -3.5102349963130491e-01 8.4169298845324003e-01
      -4.5757454566965733e-01 -6.3770023070421400e-01
      1.8673038557380024e-02 -7.3444516844262819e-01
      -1.2997844058791677e+00 1.1218763544820359e-01
      2.1702834424026768e-01 -4.7613371590508241e-01
      -5.6827513502827443e-01 -8.8671134141453523e-01
      2.4836929966895180e-01 1.0536910812895193e+00
      -7.3239171071022358e-01 -4.6945652957049611e-01
      1.1024901177642521e+00 2.8827197487551381e-01
      1.1055454314937165e+00 -1.8127951268311654e-01
      2.1883665241177341e-01 -3.8296687928722865e-02
      -4.8795725027394482e-01 -4.9128133490651515e-01
      -3.5688912343636181e-01 -4.6886402415354456e-01
      -8.1175104246418217e-01 -4.6216141858689541e-01
      1.0997358822458776e-01 7.9794219277777978e-01
      -5.0133782734679533e-01 -1.1239483232073397e+00
      1.1900144910358712e+00 -8.6761999484464059e-01
      -3.1434898551498253e-01 5.5370009388840635e-01
      1.5408850772188337e-01 -1.4724276868613149e+00
      -3.8552497890778842e-01 -2.2758211883686877e-01
      -4.5851169133768621e-01 9.9369793017028019e-01
      -3.2283224226017038e-01 5.7275341345645425e-01
      3.5326193931535194e-01 -1.8899503711914128e-01
      1.0050703434642998e+00 -4.9819240830034700e-01
      -5.3716928862115676e-01 3.5775247083354950e-01
      -6.6611784050714962e-01 -8.0473077599648701e-01
      3.3401748614571186e-01 -9.1515226313857956e-01
      -3.7677755093056581e-01 2.7034548010447405e-02
      1.0435892922067447e-02 -7.2877658501948517e-01
      -5.8435301440689791e-01 -1.2485291915751866e+00
      1.0653470363365229e-01 7.2672291251397769e-01
      -1.2276414341867246e+00 -5.7873767308443202e-01
      1.0054242946570882e+00 4.1431251965422627e-01
      1.1951603472030128e+00 -5.9615800613097205e-03
      3.3016626713207003e-01 7.3040321770528216e-02
      -2.9102078118725228e-01 -6.3113170699043664e-01
      -3.5935181800870075e-01 -4.3156900974582146e-01
      -1.0232402632394051e+00 -5.5005992092564837e-01
      4.5361767668651076e-01 1.9911694699306132e-01
      -1.8185159428649761e-01 -5.4903834322782008e-01
      1.3683589732587740e+00 -1.5625773923015491e+00
      -4.3401656316832787e-01 1.1711096498158018e-01
      2.9494790891578798e-01 -8.2715903831151605e-01
      3.1073538956878127e-01 -4.5430860438435317e-01
      1.2475708123915688e-01 6.9745534651635588e-01
      -2.7203368421527307e-01 3.5480409473587332e-01
      6.3730907414636118e-01 1.6769728187960303e-01
      1.1415559370878270e+00 -6.7567393770145734e-01
      -3.5426997854112574e-01 1.0333233155528486e-01
      -8.1518340915479981e-01 -8.5669558224959275e-01
      6.2481514799966253e-01 -8.8890812982834866e-01
      -4.2113256689895784e-01 1.5191009177104267e-02
      -2.5864621885847348e-02 -5.0726391429345907e-01
      -2.9436706909269944e-01 -1.2220133900872918e+00
      1.1867831268620781e-02 5.8833300047777759e-01
      -1.7988102578655949e+00 -3.1397532014529822e-01
      1.1714218831171592e+00 1.7105174298580025e-01
      8.1342296411171311e-01 4.9350072986595983e-01
      3.1779123034776219e-01 -1.1364332413618004e-02
      -4.8090548665958377e-01 -5.4347116613199831e-01
      -1.9242699583881140e-01 -2.7589588356071548e-01
      -7.9071409618976396e-01 -4.5323676612088623e-02
      3.7721148497994561e-01 1.0814493151392507e-01
      -4.5592904841994752e-01 -6.9469119620930109e-01
      9.4596126582190887e-01 -1.2286913010580967e+00
      -5.0890651764913986e-01 -1.0530835377353369e-01
      1.3081888200335556e-01 -5.9534164181454663e-01
      7.0372653837483257e-01 -3.5554021896949328e-01
      -3.7864703718612960e-02 2.0968395561298001e-01
      -2.1937953078144853e-01 -1.1093125115377862e+00
      4.7781939902507053e-01 -3.1993240835200398e-01
      9.6278522731117866e-01 -7.5997032143913879e-01
      -6.7113588074672659e-01 1.5191098109754028e-01
      -5.8483616951858342e-01 -7.8916376708865210e-01
      5.1630484319040060e-01 -9.8558464775420562e-01
      -4.1093819869562359e-01 4.1741346581460204e-01
      8.7587759793826561e-02 -5.8846284528684178e-01
      -1.7694878145704013e-01 -1.2661489161197019e+00
      3.9168271764672129e-02 4.2723856678733024e-01
      -2.6607005861170490e+00 -4.0165323799045971e-02
      1.3171912453849681e+00 -1.3906522067831145e-01
      9.9147924402414089e-01 7.3874402619274171e-01
      9.8177102478915212e-01 3.5021370177259797e-01
      -9.3765963315045875e-01 -9.4216318482622763e-01
      5.7514124562593853e-02 -3.1877544594816570e-01
      -4.5933860296352831e-02 3.9378638099068525e-01
      4.0384162369976223e-01 -7.6273696704464752e-02
      -6.0389323026288122e-01 2.9477574014467894e-01
      7.4273466681091715e-01 -5.0094633270002975e-01
      -5.0854826815722831e-01 1.3278685757386380e-01
      3.6804734451025389e-01 -8.0535570078176369e-02
      1.0610315797402659e+00 -1.5109438199885480e-01
      3.7732221288530454e-01 -3.8722057504125046e-01
      -1.9784031605278009e-02 -1.0051871221490596e+00
      9.8398159911012573e-01 -8.3407621780321650e-01
      7.5060657659896779e-01 -1.1787330081576068e+00
      -1.0912195951865784e+00 -1.0695106375246810e-02
      -3.6779687917422199e-01 -2.7783641836824391e-01
      4.9536665417668818e-01 -6.9287115135242905e-01
      -7.0688871155504973e-01 9.0891578222166858e-01
      2.7889291230764185e-01 -2.9096366493832349e-01
      8.6785052142748689e-02 -1.2312262869568582e+00
      7.7431855026946383e-02 2.8915805518380100e-01
      -1.4818559227389596e+00 2.7176835268061494e-01
      7.5589845593814253e-01 2.8787996245585618e-01
      1.1847830787995168e+00 4.0223004309853572e-01
      1.0300366910894669e+00 -2.7941554251984836e-02
      -1.3099288903782098e+00 -8.0591048899886186e-01
      3.2694488122312171e-01 1.3187175304171103e-01
      -8.1845370707939402e-01 7.6549187740546598e-01
      -1.9420498048836773e-01 1.1825783621495953e+00
      3.3591023465852743e-01 1.5337284808480980e+00
      6.0403337142740765e-01 -4.5309608340224690e-02
      -6.9796738334767905e-01 5.8930658765910537e-01
      1.8041800981258743e-01 1.7380934899732720e-01
      9.8439753243938877e-01 -2.5957839706673913e-01
      -2.9862607802656305e-02 4.1041149060629134e-01
      3.7507294549635051e-01 -7.1670713639347339e-01
      5.2662726307520158e-01 2.0508013275766701e-01
      2.2361515002657886e-01 -3.6764362338943407e-01
      -1.0357865955250999e-01 -3.9439185746011274e-01
      -3.7826720785255612e-02 -3.6996382190760835e-01
      5.4402627940735404e-01 1.7921620240400579e-01
      -5.4326057264285899e-01 1.0624077041670890e+00
      7.5732985915422590e-01 -4.6152408666014250e-01
      2.5192783766237437e-01 -5.4509339577847460e-01
      5.7903981023323912e-02 2.7298117270546257e-01
      -2.0296205564290779e+00 6.5377996080954248e-01
      9.7916365092521562e-01 5.4968919730173504e-01
      1.0711154147583144e+00 7.6025510064294177e-01
      9.6300218672530957e-01 -6.2047118493605202e-01
      -1.6358320328723255e+00 -6.2739596391576580e-01
      8.5781134798586334e-01 -1.3171283451699609e+00
      -7.8783357534944209e-01 6.5099061730500418e-01
      -3.3833367955069782e-01 9.0314474162962111e-01
      2.2076137325146625e-01 1.2218920489070910e+00
      3.0012372038168489e-01 7.4145168829989594e-01
      -5.9243214869341587e-01 9.7742872307174644e-01
      -2.1224961162287817e-01 8.5139078852303052e-01
      1.0579227843213295e+00 -6.5688943077180900e-02
      -4.0178553937057665e-01 6.1198953494030617e-01
      -1.2634140206814568e-01 -9.3707749077550084e-01
      -2.8891961733540450e-01 3.6808554019059686e-01
      -4.3237052549661648e-01 -3.5760091234120034e-01
      -4.8215072036083217e-02 -9.3227826507578637e-01
      -8.4047916722904459e-02 -9.1822443967588985e-01
      4.6672226063765981e-01 3.0879858044258868e-01
      -1.3806842724390794e-01 1.4921412904213134e+00
      7.6225060268897360e-01 -4.1430051107402312e-02
      2.1626129380960063e-01 -2.8447105727860506e-01
      1.6294029629713055e-01 3.1284278201504097e-02
      -1.9711980241521208e+00 6.0210509752264940e-01
      5.7078602326334704e-01 5.1989345156264211e-01
      9.7492846679934353e-01 7.8272067562865288e-01
      1.0465818130819753e+00 -6.9250081886310377e-01
      -1.6719504910499265e+00 -3.3518084151130678e-01
      9.2436354849981106e-01 -1.9671177023424407e+00
      -4.6519629375841781e-01 5.0233945431881000e-01
      -4.3313288814417061e-01 2.6237052579295717e-01
      1.4957036240223279e-01 1.3728057301859902e+00
      1.7741098835726898e-01 1.1544215905538349e+00
      -4.2711363147345333e-01 9.1627367971488272e-01
      -3.4616546943258447e-01 8.5408382583791143e-01
      1.2815419024405188e+00 4.5179250788955003e-02
      -4.9400437703675293e-01 7.8239520903886139e-01
      -3.5753678599323435e-01 -4.7578790921149833e-01
      -4.1803198503213201e-01 1.3530794376819696e-01
      -4.5635125742110882e-01 -5.9570981380387433e-01
      4.6238880709679647e-01 -9.0063944155657594e-01
      -6.5024205780733937e-02 -8.5674581089417734e-01
      6.8069667126339262e-01 -1.5916843705976658e-01
      -5.3237980144875581e-02 1.5495650132500778e+00
      8.8146661585138164e-01 9.7586787477005388e-02
      7.2945784442273087e-01 -4.7370261066049295e-02
      2.4324184469799950e-01 4.3958551476298194e-02
      -1.4625653435980723e+00 5.0491851135586774e-01
      5.0297085064515490e-01 5.0323208553428556e-01
      8.6204644925707841e-01 7.7970624308397340e-01
      9.2091740283005274e-01 -6.8505367757090851e-01
      -1.5925764978862407e+00 -2.2706610572019042e-02
      9.2731692899511442e-01 -2.1656177200688971e+00
      -2.5925838866055911e-01 5.4380061453810391e-01
      -4.5995743917802262e-01 2.1555645020494593e-01
      -1.5802117992861419e-02 1.5499683215834861e+00
      1.0373662334004594e-01 9.8293197401014476e-01
      -6.6266029408923199e-01 8.2559110289430793e-01
      -4.1888149260730756e-01 9.0425619218792486e-01
      1.1015472357361447e+00 -1.1501117062467374e-01
      -7.0030570657138191e-01 7.6763489815495434e-01
      -2.8693841237371315e-01 -3.6585603245772552e-01
      -4.1177312124922455e-01 3.9056630565275752e-01
      -4.4238571399821930e-01 -2.9065894814592008e-01
      6.8961249191024543e-01 -6.0503156938599623e-01
      -5.6656291127019465e-01 -7.6355273423798786e-01
      8.4040363217617253e-01 -3.3244892790936426e-01
      5.1955268639659819e-03 1.3512875703336940e+00
      8.9848372167423873e-01 -9.5521766781621706e-02
      7.6882451809503394e-01 1.8187981437269618e-01
      3.2776394111015861e-01 3.8017518926599908e-02
      -8.7941786308166936e-01 3.5853728960577785e-01
      2.0798605898809391e-01 4.1461407932066829e-01
      1.2230550404337341e+00 7.3536255321586441e-01
      8.3588058194167603e-01 -5.4527904643106118e-01
      -1.4431184585232040e+00 3.8818096905045135e-01
      7.4146471999745922e-01 -2.4246707404848165e+00
      -4.4829674796948094e-01 3.6712874069657347e-01
      -4.9391668185655069e-01 -2.1379062335084431e-01
      -2.2557363566204930e-01 1.0485265793426959e+00
      -6.0140718610921795e-02 6.0429641727622174e-01
      -9.5597014565733973e-01 5.4435382738692450e-01
      1.3743533608742844e-01 5.3023198058857919e-03
      5.5671064790460756e-01 -3.7190818280596116e-01
      -1.1214281686404171e+00 1.0440516080433435e+00
      -5.5646689011736272e-01 -1.6599401920611834e-01
      -3.8044386123447671e-01 8.6824090103493046e-01
      -3.0503304964419936e-01 3.5768317947412389e-03
      1.9788830649594372e-01 -1.7503190152698253e-01
      -1.1801521077224519e+00 -7.8755687438467481e-01
      1.0112758256917715e+00 -2.7762325219048911e-01
      4.8988261246297815e-01 1.0008332152252208e+00
      3.5627119280764236e-01 -1.1188171644173777e-02
      4.9521890428070342e-01 4.1066526434183276e-01
      3.2300677803692218e-01 -1.8799125323793839e-01
      -1.0774019805973123e+00 -7.5410718399037558e-03
      1.1343316943792801e-01 5.9467204201409281e-03
      1.1901084138229374e+00 7.9893316734865705e-01
      8.3205991993281359e-01 -8.0472205534509667e-01
      -1.6333841054718161e+00 5.3903462103858246e-01
      6.2060586392785522e-01 -2.4546548387721487e+00
      -3.8159439876889090e-01 1.5776408027567176e-01
      -4.7591069874260136e-02 -4.0036877757759803e-01
      2.1851689234135000e-02 2.1065001068047501e-01
      1.6922414262916755e-01 3.3152709194907831e-01
      -1.8616572882193638e+00 2.9974464410836393e-01
      1.6299797110915804e-01 -4.6463916560038682e-01
      2.0198170099067031e-01 -3.8148913972970981e-02
      -4.2713479630651030e-01 1.4291601867291379e+00
      -2.4709893623135304e-01 -2.0481133845170607e-01
      1.3399300532525657e-01 5.4428539516437491e-01
      2.1035997718481100e-01 -2.3001245405270578e-02
      -5.1544815448956971e-01 -1.6824177362748435e-01
      -1.1414881392934384e+00 -8.4064840311136446e-01
      7.0553669745188941e-01 -1.0209094249897759e-01
      4.6366734509264196e-01 5.6473444249736315e-01
      -7.5481415857930445e-02 -2.9588697119550800e-01
      3.3750116306240369e-01 2.3097580279704457e-02
      3.3602100599761447e-01 -4.5160519915401535e-02
      -1.9901850002335735e+00 7.3942913659798382e-02
      4.5001272112953916e-01 -1.1793503471650942e-01
      1.2020583424303934e+00 4.2230792768849362e-01
      5.7742171557219824e-01 -1.1697051511373824e+00
      -1.2216260167283595e+00 1.3019816106162363e-01
      2.5538275909812730e-01 -1.8561126521765448e+00
      -4.4414653207132648e-01 -2.4533121734055383e-01
      2.3354209138530732e-01 -8.9824336825251050e-01
      -4.8807743702229900e-01 -2.6817956924516034e-01
      -3.7959638587455441e-03 -7.4893303013075951e-01
      -1.7209698531606183e+00 -1.6984485829917345e-01
      5.9411533275521256e-01 -3.9538685914055910e-01
      7.7174746530049680e-03 -3.8671099274994930e-01
      -8.0959810074034344e-01 9.1121781921793488e-01
      -1.8962707137616186e-01 2.9288352031081444e-01
      -4.4983405191154280e-01 1.0906436202809917e+00
      8.5011630351512835e-01 4.6289620527094116e-01
      -2.1534958800064247e-01 3.1860466137332072e-01
      -9.8389181507357681e-01 -3.5262448719980494e-01
      5.0513163078436196e-01 -4.2114239965188149e-01
      -4.4899851186827926e-02 5.5397328601263029e-01
      7.8725051588857564e-02 1.0886299918418529e-01
      -2.9861029613705053e-02 -8.3265598129629997e-02
      3.5907882506510985e-01 3.9897175847361910e-01
      -1.7665786556070497e+00 1.0876259928805856e-01
      6.5707577806341466e-01 1.9409435077666351e-01
      5.7792703219277997e-01 6.3556767648062262e-01
      4.5731355378315752e-01 -1.1790375037556642e+00
      -2.0461301406078323e+00 6.1927271455458587e-02
      4.6000985468748429e-01 -1.1056945730355576e+00
      -2.4612613780645842e-01 -6.6344754693256891e-01
      1.2342017417725558e-01 -3.3823994438126675e-01
      -2.6942518604148974e-01 -3.2711139756693219e-01
      2.8373116713935925e-01 -6.8447673262753295e-01
      -1.0681938019230539e+00 -6.1031147385037857e-02
      2.9614174838317558e-01 -8.1182208573173886e-01
      2.3790672746947472e-01 -1.0013547348216743e+00
      -6.7619997642811558e-01 2.7204712679932003e-01
      -5.2461392168318666e-01 6.7867496906994051e-01
      -8.5075039024600585e-01 6.6412215913382711e-01
      6.7120199808265368e-01 1.2156488539859605e+00
      -1.6169007274574592e+00 -2.3055681986699017e-01
      -1.2136911627794569e+00 -4.0004262972860111e-01
      5.7922128315855581e-01 -5.1970987194770712e-01
      1.7068513411082334e-01 2.2204331944628183e-01
      -3.8473194310127568e-01 -1.4740818262322902e-01
      1.3951112026837575e-01 -4.6296147868781329e-01
      3.0339184457055801e-01 4.7737462706731426e-01
      -1.0006513760729721e+00 7.1600227480990389e-02
      4.4346087662283473e-01 7.8755485026982808e-01
      1.2179060722237729e+00 1.6998126798756388e-01
      1.7770035675024706e-01 -1.1862188669703264e+00
      -1.1203852885061008e+00 -2.4037990233881043e-01
      -5.9973796814819225e-01 -5.2505710139227690e-01
      -3.3261015925283566e-01 -4.0290067682898228e-01
      -1.2570678827197662e-01 1.8792455320002380e-01
      -7.2092412591294430e-01 -6.9003653698181888e-01
      2.2118276191279315e-01 -6.6684742461168500e-01
      -7.6349725180891903e-01 -3.4868099238529066e-01
      8.0427797983247795e-01 -9.5796398834972118e-01
      -2.8654084000740859e-01 -8.7221504151082385e-01
      -7.5263913586704534e-01 -1.4295028125834537e-03
      -7.7886252385881360e-01 6.2755829419090814e-01
      -8.4947807405030018e-01 8.9765962585672487e-01
      8.2274053879684417e-01 2.1237066794743216e+00
      -1.8751786932043910e+00 -2.7206673073426252e-01
      -1.7056152374220350e+00 -1.2559689126840107e-01
      7.6583774543143945e-01 -5.7487366469571410e-01
      1.0060345236786131e-01 -3.2623947275064163e-01
      -3.6376668320178335e-01 -5.2900955265275840e-01
      -5.7921685117026590e-02 -7.4807071123393754e-01
      -4.0934751975931277e-01 -1.1376765531050760e-01
      -7.0863528248528018e-01 9.8267976269488147e-02
      4.0658273896089592e-01 8.9676716464155382e-01
      1.3777248621763858e+00 3.8977448760373895e-01
      -5.0134563665468694e-02 -8.0918743512501345e-01
      -1.0413527021241609e+00 1.5657879392688917e-01
      -5.0274336257083851e-01 -2.3855834294278938e-01
      2.3123983563753350e-01 -3.0731739517770779e-01
      -3.1415075383957836e-01 -1.3974826260171566e-02
      -1.0968253846804688e+00 -7.6534324938758458e-01
      6.1458353777781127e-01 -5.9667982591409519e-01
      -7.2852896094113517e-01 -4.2188534628972590e-01
      8.6388815332605162e-01 -9.6424106138962795e-01
      -1.4594062806821978e-01 -6.2276870926303696e-01
      -6.5244897528162926e-01 -4.5333636834117386e-01
      -4.2555611754298783e-01 7.4530955907673446e-01
      -4.0448922276468313e-01 8.2798104941239392e-01
      7.0931950477329631e-01 2.2651261594300158e+00
      -1.2423665803537480e+00 -3.7514428702072133e-01
      -1.3678713165780558e+00 1.0952042955865028e-02
      1.0052893465454924e+00 -3.8227654989903803e-01
      9.3310361273810066e-02 1.3875761722774738e-01
      -1.1234605038763507e-01 -3.8398949046448955e-01
      2.0059283374236410e-02 -8.1693547896928986e-01
      -4.7769039785539757e-01 -4.8820217359828455e-01
      -6.5212294981184538e-01 -1.8538404245062708e-02
      3.1671726278585743e-01 7.4350082548643104e-01
      1.3094659324495503e+00 4.4287172086940707e-01
      1.6768391678728745e-01 -4.4137014662578411e-01
      -8.7324217890540523e-01 1.7272839165627371e-01
      -4.4702040136435373e-01 -1.0188028051239541e-01
      6.4969209175844433e-01 -3.1525162038210841e-01
      9.5555152520708838e-03 -2.5880110425300248e-02
      -3.7048028906463099e-01 -5.1547148409822063e-01
      5.6997225497473547e-01 -6.7698646882911040e-01
      -5.9981907525714628e-01 -4.9069774086849527e-01
      8.2878397103469192e-01 -3.3067354045465508e-01
      1.0604159249516915e-01 -6.6305339902393762e-02
      -1.0287037416651786e-01 -5.3027544480571787e-01
      -3.2302762900183513e-01 1.0311478208166598e+00
      4.6308461062439393e-01 7.0972616426673107e-01
      5.4982368707243179e-01 2.0433422540474737e+00
      -9.8154057828264984e-01 -5.8682871140178117e-01
      -8.5683539944972897e-01 -3.4213100393851537e-01
      6.8938975048240680e-01 -6.8003611599131819e-01
      -1.1343122327289165e-01 2.1742055396132839e-01
      1.7661612004336504e-02 -3.5775624295889852e-01
      2.9875457647544579e-01 -8.0744109653373586e-01
      -4.0221327679609548e-01 -6.0776931298365322e-01
      -3.1971232323317489e-01 2.5222099779041152e-01
      3.4067536547054522e-02 8.2160724637875926e-01
      1.6255650334587775e+00 5.7834341654174437e-01
      8.0060956540850062e-02 -4.2144849497529630e-01
      -1.1792572875358811e+00 -1.8934406905846515e-01
      -2.3521133979725370e-01 4.9841081535373935e-02
      6.6399458056051486e-01 -1.7702389798410209e-01
      -4.3354943554793957e-01 -1.9150316382055756e-02
      -2.7188851280519932e-01 -3.1180654699529786e-01
      3.2117025447473513e-01 -3.8884440633408934e-01
      -5.8508373907503908e-02 -4.2366823479596849e-01
      6.4575636613081200e-01 -3.0065511566774433e-01
      2.0439573260393026e-02 2.0002526733538228e-01
      1.8149520389788751e-01 -5.6211135121279832e-01
      -6.0442115511962470e-02 1.3649441429209099e+00
      2.9551987903799803e-01 1.0389366615119033e+00
      6.3270647272618352e-01 2.8432104524503323e+00
      -1.2277719287548665e+00 -8.7762581061641576e-01
      -9.3593828455938188e-01 -2.3999655301018175e-01
      9.1212265854494912e-01 -6.4546370051318547e-01
      2.1876548121751865e-01 -7.6331376667633830e-02
      -3.2051419219321370e-01 2.6070157960527751e-01
      6.4477549474675400e-01 -6.6500314927540460e-01
      -4.5621485975025217e-01 -8.6874224163171831e-01
      2.7064397843853055e-01 2.7061172439482339e-01
      -4.4969894765428559e-01 4.0609685146769836e-01
      1.7608154338979061e+00 9.0236981043473252e-01
      -3.8413122684765461e-02 -1.3634984060317248e-01
      -1.4053809401408182e+00 -4.2533337328293686e-01
      6.8752563824905202e-02 -2.7268557435859758e-01
      9.2526648537773359e-01 -2.9636245532451786e-02
      -7.6438955925926333e-01 4.1686787348578301e-02
      8.9359644806726812e-01 -4.7316888683587487e-02
      3.3788123405606489e-02 -5.4064236474120164e-01
      1.4723361808637256e-01 -4.3817995563012146e-01
      -2.4889026399582462e-01 1.7302192009827339e-01
      4.0251064269634279e-01 -4.1469550959882856e-01
      6.1885290257970704e-01 -8.1971952833094097e-01
      3.7777001553802497e-01 1.5498105266011835e+00
      6.9970552723129120e-01 7.4777667824305927e-01
      3.7925061371983043e-01 2.1362419141688838e+00
      -1.2814036595549163e+00 -1.0159596671108415e+00
      -2.6395060272775583e-01 -1.0741166187422690e-01
      6.2002719108903137e-01 -1.5122787643780183e-01
      -1.3082643600401853e-01 4.3106926742155813e-02
      -4.0511509780300348e-01 7.2883277051711504e-01
      3.5078344880929591e-01 -4.7308028758034210e-01
      -4.3018493799010132e-01 -1.3291728783678749e+00
      4.1762919850249269e-01 -1.9617897658242270e-01
      -4.6265769143705815e-01 1.6106188167403584e-02
      6.6531230950037168e-01 9.6192015906540729e-01
      -4.0008706844021236e-01 5.0327394431087069e-01
      -9.6609318778740860e-01 -7.2468170707263413e-01
      5.6621704572773235e-01 -1.1764106904667114e-01
      1.4065880273832405e+00 -1.0149070403730011e-01
      -7.6640296734245583e-01 6.8946344933467985e-01
      8.3272681052868958e-01 -1.1613126236198515e-01
      -2.7638843340979008e-01 -4.8079192475093602e-01
      6.0193695010505754e-01 2.4938248735058391e-01
      -6.4816738935101148e-01 -9.2217755572862450e-02
      9.0170233464388003e-02 -1.0183526456819253e-02
      9.0510761617103064e-01 -5.9097557507282801e-02
      2.4747789780818263e-02 8.4296284600311744e-01
      7.5198891958446423e-01 9.3850719825945533e-02
      7.3098881287208028e-01 5.3985656137581761e-01
      -1.3938586407257942e+00 -1.0517705128046448e+00
      -2.8647188573082116e-01 7.1687859994014513e-01
      4.5024013175652602e-03 5.3650553228520736e-01
      -2.0313332053564434e-02 -1.4903323622374603e-02
      -2.5195641857627482e-01 7.6800142491892287e-01
      7.2053956756773591e-02 7.1063004253289108e-01
      -2.2778685833915124e-01 -1.5773587559266804e+00
      3.5230139068830896e-01 1.2900229611028990e-01
      -5.2160812119338207e-01 -7.8376752544225958e-01
      1.3023400249370098e+00 1.4294537032854877e+00
      -3.6128197580115184e-01 2.2224729784691272e-02
      -1.8683378825798118e-02 -4.1197360633457786e-01
      6.5402472766560915e-01 6.5380517171115607e-02
      9.6828932722846472e-01 4.0509479895577079e-02
      -1.2768940677106271e+00 -1.3253117549021501e-01
      7.4987388098532259e-01 1.5297358897486663e-01
      -2.8463745499942694e-01 -8.4112133064454009e-01
      -2.2133313835769758e-01 6.9020845229175273e-02
      -4.1006462380570527e-02 1.4519468173965686e-01
      1.2580816773592327e-01 -6.5271986750339669e-02
      8.8133126385968485e-01 -6.4290185543637790e-01
      7.7507798138064710e-01 1.7590205640103451e+00
      9.7781881695319572e-01 -8.1683387755746828e-01
      4.6407829376974091e-01 3.4514607153832150e-01
      -1.6556237937749667e+00 -5.3761297473407932e-01
      -3.2548876317720776e-01 1.3677524958351597e+00
      -2.5965219521359606e-01 3.7907133231567020e-01
      1.1168014627116245e-01 -1.5102087139406303e-01
      -6.7257708840721697e-01 4.0824477211335225e-01
      -4.3141738657837392e-01 5.5900931721245717e-01
      1.3742669300329122e-01 -1.8522774322979387e+00
      1.6148092521321040e+00 1.5503092823166020e-01
      -6.9572181530247135e-01 -1.4000954896507873e+00
      1.4875844480055513e+00 1.4238101106561047e+00
      -2.4172111363573218e-01 7.5860880569542999e-01
      7.0450578360746485e-01 -1.4820012196044863e-01
      1.0626244789541137e+00 6.6003277903171242e-01
      1.3463233885896961e+00 9.0249464652797740e-01
      -2.2344212423539740e+00 1.7029780963821750e-01
      4.0249278567142577e-01 1.9165508930166369e-01
      -4.3492869073757789e-01 -9.5694758584506445e-01
      -5.4293483109572882e-02 1.5197849228514332e-01
      2.8018850470928752e-01 5.0670558551381506e-01
      -3.2886234993369193e-02 6.1766414747086373e-01
      9.7793193326497008e-01 -1.6192831840756730e-01
      1.7085267309744665e+00 1.7370975865964504e+00
      2.1525612965228480e-01 -1.0317040566177407e+00
      -3.7163714483232274e-01 -1.1151240279008877e-01
      -1.6296784470996548e+00 -8.0602227003029470e-01
      -3.7753684236930363e-01 1.7743307416424829e+00
      -6.6019171131604282e-01 -3.3100595978242352e-03
      -3.9809600787605692e-01 -2.7256700113274396e-01
      -5.7757799354674666e-01 -3.0148275801955199e-01
      -5.7431653991906562e-01 5.6185037114133729e-01
      1.5277042816584116e-01 -1.3105979233744431e+00
      1.6125519815243277e+00 4.3353178399653514e-01
      -5.5357779482419567e-01 -1.0982037669038083e+00
      9.2707751577935626e-01 1.3624128613133504e+00
      1.0358464438898478e-02 9.9999145848082960e-01
      1.1345990234818000e+00 -1.5858558088565045e-01
      1.4104547845821469e+00 1.4488797203466666e+00
      1.3434401521598023e+00 9.9024761617174073e-01
      -2.0781084013427584e+00 5.1668753897891706e-01
      1.8434651912245050e-02 3.5077924836934038e-01
      -6.1951260589236523e-01 -1.2694007086688326e+00
      -3.3490477760030035e-01 5.0671805369215273e-01
      -5.1076443900799261e-02 1.0890593427932144e-01
      -3.2386103022717977e-01 4.5575822356847034e-01
      4.7719740288487178e-01 3.0119416315406611e-01
      1.4554957767364829e+00 1.7828138943614111e+00
      4.4965166129444005e-02 -1.4413580769927308e+00
      -2.4693985671016949e-01 1.1857146140001220e+00
      -1.7954502630636122e+00 -3.3462626557323832e-01
      -2.7462058127888039e-01 1.7312624599869566e+00
      -6.1360318792474777e-01 5.7364436921704276e-01
      -1.1472778697201060e+00 -1.2591237037186342e-01
      1.4242112526768494e-01 1.2423770604827884e-01
      -6.6836134470391928e-01 3.8322164617017523e-01
      6.4831748256088187e-02 -1.1065076602104897e+00
      1.4849925484485964e+00 4.6607439850769666e-01
      -6.8633581638830199e-01 -1.2481916462202165e+00
      7.8622581149174231e-01 1.6269154348385699e+00
      -2.1898481725202909e-01 9.8482443109763085e-01
      1.4073504653544699e+00 2.5291420090968192e-01
      1.4576254718584922e+00 1.0597855099479572e+00
      8.9125453772916163e-01 1.1637917831095228e+00
      -1.5697061825371081e+00 4.6237964323697356e-01
      1.8800366724428333e-01 5.1549513781826084e-01
      -6.9447138976603029e-01 -1.0305416390094253e+00
      -7.2037290919486441e-01 2.4032320412273939e-01
      6.2471373269265704e-02 -4.6532509201010534e-02
      -6.1981544807402444e-01 2.1550531465501779e-01
      6.2814130221829148e-02 6.8603406696295097e-02
      1.5352487306769678e+00 1.3553742154026189e+00
      2.7473093568318268e-02 -1.3046189877411194e+00
      -1.2450820206176029e-01 1.5113767274988279e+00
      -1.5365107034498482e+00 -1.3344535553937570e-01
      -4.0953215000041493e-01 1.7100542120536422e+00
      -3.7795651236518218e-01 2.8530333269397334e-01
      -1.3145751171240128e+00 -8.9384038480271835e-02
      4.4747845089735540e-02 -2.9961194068453662e-01
      -1.1511298023890999e+00 2.1892189534757944e-01
      -2.8297200231380626e-01 -1.5982228028219128e-01
      -3.4278546782571334e-01 -3.3403586751271130e-01
      3.8678185815532257e-01 7.7380409994580179e-02
      -7.1504900409347871e-01 -5.8944326226306154e-01
      1.4674448119326405e-01 -4.0709188376856076e-01
      8.5024628632268284e-01 8.2717489545568390e-01
      5.2125469295093785e-01 9.5955328495026448e-01
      -2.6591117121040369e+00 -1.0008587203891952e+00
      1.3393404186476625e+00 -8.6526510841346083e-01
      2.5570177653971315e-01 -9.4014708307162398e-01
      -2.8762915093657548e-01 -4.7724535312986477e-01
      1.4827398548353102e-01 -9.5047328733161240e-01
      -1.1279970595638474e-01 -1.1975900282506711e+00
      7.5312138064212264e-01 -7.1819877615969274e-01
      2.6452986189071478e-02 -4.7466640854067638e-01
      -6.5936396467553282e-01 -3.5323405580304623e+00
      5.2612428555229962e-01 8.5422373126499940e-01
      6.2169502181154779e-01 -8.9712720126866274e-01
      5.9945736519227422e-01 7.8441234407021343e-01
      -2.2545259138918300e-01 -3.0103152541676370e-01
      2.7667234295457549e-01 -4.1521641223479888e-01
      1.1036610562143934e+00 -2.4334708875219126e-02
      7.2331878586211351e-01 -4.9010876243172746e-01
      -3.6094697701381256e-01 -1.3095082177839543e+00
      -2.3830104182377385e-01 2.2278994204507327e-01
      -2.2120197533191860e-02 -1.6208389235562035e-01
      -4.1224673274589466e-03 5.6356703013911366e-02
      -6.9193751124052028e-01 -6.6687451384477114e-01
      -6.0409643041771093e-02 -6.2652194614348211e-01
      1.9159543997100110e+00 6.7453113390746200e-01
      5.0686262000381933e-02 4.3458060183750657e-01
      -3.2098076855486259e+00 -5.6611460455865803e-01
      1.3415034742067617e+00 -6.5037644177771403e-01
      4.0522578439151452e-01 -7.0070704308247211e-01
      -3.3392297517526043e-01 -3.4447605439388879e-01
      1.8628292622226292e-01 -8.2771819325495288e-01
      6.0645524145296836e-02 -1.1018610154572686e+00
      5.7497471214229545e-01 -5.5461825211551830e-01
      -8.4562664467516188e-02 -3.2300150421976731e-01
      -3.9357881749531526e-01 -4.2710893193824804e+00
      5.6032958437128833e-01 4.4137538374707369e-01
      3.5652057852627489e-01 -3.3667483912658153e-01
      9.6996358246900882e-01 4.5727582019631141e-01
      4.2307626491633438e-01 -8.8922389253369954e-02
      3.1692388065136684e-01 -3.6153087323917371e-01
      9.5069343539016338e-01 7.3128016061828616e-02
      7.9616593091880106e-01 -7.9179087423430605e-01
      -5.1274521878934047e-02 -1.0593183855752302e+00
      -1.9501321582393502e-01 5.1471482123249768e-01
      2.0073649533161539e-01 8.6235538504798329e-02
      -3.6733702689223685e-01 -4.1997889589531739e-02
      -7.1519542391086799e-01 -7.8804693784510038e-01
      -2.0871488411643765e-01 -7.4814535591041165e-01
      2.6559181649913759e+00 5.1105415666460974e-01
      -3.2981202552588007e-01 1.6881765206466490e-01
      -3.0378065169267741e+00 -1.0432254236311997e-01
      1.0970212522285379e+00 -3.6773826991074010e-01
      4.2859396877237455e-01 -3.5457467042903573e-01
      -3.6540782402155991e-01 -9.4358073899605793e-02
      3.7092487993545137e-01 -5.0497298939796731e-01
      1.9410927195123365e-01 -7.5780950314600759e-01
      2.9205997665260935e-01 -2.4877042986227627e-01
      -3.2530046518678973e-01 -1.7285778877701144e-01
      -2.0164281187832639e-01 -4.0412457355611631e+00
      4.8517197142278001e-01 5.9321681208026715e-03
      -5.4396159143143760e-03 1.8552805308759407e-01
      1.2046677262592720e+00 1.2104801742161569e-01
      9.2127854412724530e-01 3.9488224643536539e-02
      2.2099984507776085e-01 -2.8669155686554604e-01
      6.0258160283718121e-01 -7.6465158407655425e-04
      8.0991537026628924e-01 -9.4797464097506390e-01
      2.7656898000572971e-01 -5.9921128362023068e-01
      -3.9090332396062072e-01 4.9437267073909225e-01
      1.1016988686854566e-01 6.2926424072077380e-01
      -3.8669961134202058e-01 -1.6288165210776551e-01
      -8.3703575238354599e-01 -8.5881758611735692e-01
      -4.2126642218050159e-01 -7.9031352638964791e-01
      2.8066227988361305e+00 5.7878031844512734e-01
      -1.6957982841874514e-01 9.3266647941805239e-02
      -2.0460772194831818e+00 -1.6076939227162854e-01
      8.0627654887322042e-01 -1.6379376679144828e-01
      2.6763275153587501e-01 -8.5557902959646701e-02
      -3.9552861941219014e-01 3.8421464524652693e-01
      5.9291743789883355e-01 -9.0850280918791132e-02
      8.0176411961359703e-02 -1.3630821243421970e-01
      1.4399380764640349e-01 4.4167582411160453e-03
      -5.4359668496867575e-01 3.0102034630248153e-01
      -4.4773882278742810e-01 -2.8675480744706516e+00
      2.0406975848562295e-01 -3.1084434991667032e-01
      -1.7654907380976759e-01 2.8395076377670547e-01
      1.2640174774806081e+00 1.8142997249311313e-01
      1.1560775648430641e+00 3.8199204094794383e-03
      1.5902991045353934e-02 -3.4047358320265736e-01
      3.5166389376400037e-01 -2.1949665345694544e-01
      8.8910590338618456e-01 -8.1760006591478640e-01
      2.4813751529217193e-01 -3.4155594306152470e-01
      -6.2405897136584787e-01 3.2516553017969307e-01
      -7.9678893389341282e-02 1.1908085554358379e+00
      -3.0313182048850434e-01 -2.5517079464867948e-01
      -4.3907560428868886e-01 -8.5125159647580306e-01
      -6.2751017346834959e-01 -7.2215323567897183e-01
      2.4001377181932484e+00 6.5886088450538316e-01
      -2.0231524452838906e-02 -5.4234509651028266e-02
      -9.2083703108506132e-01 -3.5202121839751377e-01
      3.0881434867289498e-01 -2.7245405200405026e-01
      1.8336729890682374e-01 2.0058167113765391e-01
      -3.2562764996513510e-01 7.6936789550776297e-01
      6.5357052210026900e-01 1.0837419997818827e-01
      -4.9048362308809067e-02 5.8373163920087257e-01
      2.3797425950519838e-01 6.9933562987608500e-02
      -5.7720619891282110e-01 7.4878905749976088e-01
      -4.1437311673608679e-01 -1.3915425076620662e+00
      -1.8362520213905706e-01 -6.0935055359276902e-01
      -3.6055686607840498e-01 -1.9135655813913965e-01
      1.1716157706625527e+00 1.9826890594373592e-01
      1.2039549563302852e+00 -5.2560910336384679e-02
      -3.2837675357982161e-04 -4.3685712387451703e-01
      8.7197861925915152e-02 -2.0869586415530750e-01
      5.2015726712070864e-01 -5.3008203554775690e-01
      5.0491357130908118e-02 5.1487748192084789e-03
      -6.8281226173361231e-01 2.3331791244832020e-01
      -3.1765384348238723e-02 1.6563218218679354e+00
      -2.7344608578566565e-01 -3.8416160343124722e-01
      -4.4844310032586050e-02 -9.5686142699869481e-01
      -7.8268318859126351e-01 -5.4753887221439324e-01
      1.3301467405854044e+00 7.5536166076244160e-01
      7.2430229042834762e-02 -1.1176889295986706e-01
      -3.2635976995684624e-01 -1.8868930710849116e-01
      -4.1887010793535490e-01 -6.6878586992242617e-01
      9.9632640841685202e-02 5.4585049373271100e-01
      -1.2761848958885469e-01 6.4380316604269172e-01
      7.3651855348260931e-01 2.0769441240999928e-01
      -1.6737143167177385e-01 8.0739520599337089e-01
      3.1614260049505261e-01 -1.5105924123659054e-03
      -3.8314143399160289e-01 7.5488313330191659e-01
      -2.6607938809118159e-01 -9.9222387947252147e-02
      -3.4913219142400176e-01 -5.4601677489562483e-01
      -4.9436393186147959e-01 -4.9135937692776338e-01
      7.6786679237998434e-01 2.5796408492323686e-01
      9.1247797884185233e-01 -9.2567088521103943e-02
      -1.1292247463765646e-01 -5.4133079757765223e-01
      -4.4695643526335510e-01 -3.0945048859605223e-02
      3.9214515358631224e-03 -4.6256648367148945e-01
      -3.0951535078610263e-02 4.7026137703280035e-01
      -5.9014087774277191e-01 2.3840828788646365e-01
      1.3590148006676428e-01 1.9824167059854483e+00
      -3.7663687664966028e-01 -4.3327357282411316e-01
      1.2942142690035521e-01 -9.1343138812641611e-01
      -5.7935950672845071e-01 -3.5578571230328609e-01
      1.8697810318876118e-01 7.6680610291437157e-01
      2.4410537078154282e-01 -2.7283903118429725e-01
      9.9343681166628797e-02 -1.0129573759737538e-01
      -8.9203885072322819e-01 -9.4673920146885726e-01
      4.0642835882436154e-02 7.4994680879447961e-01
      -1.7531512547626960e-01 4.7550900010106439e-01
      7.8920658244463038e-01 3.1955658516644436e-01
      -9.0009103192215417e-02 7.7341139570150841e-01
      3.3554907289393421e-01 9.5866581459932140e-02
      -2.0940942387997918e-01 6.2471360578114399e-01
      -2.9671448905129122e-01 6.1035657136392651e-01
      -3.7671486027271023e-01 -3.9968826628371595e-01
      -4.4907204287854247e-01 -2.3818696552426849e-01
      3.8572496759440089e-01 4.1949431599783710e-01
      4.5602241634953344e-01 -2.8013727088520613e-02
      -3.7474252485961729e-01 -5.8818226978296528e-01
      -1.0259658192916725e+00 -4.5309904267317590e-02
      -2.1981557483690423e-01 -4.2077886016624494e-01
      -6.8670985762419257e-02 6.8093514087941864e-01
      -3.8936467830957044e-01 2.4622233760782200e-01
      -3.1627147901566489e-03 2.1727560964251871e+00
      -4.6678020823671423e-01 -3.7682542109010181e-01
      3.0137287352395553e-01 -1.0204966719130657e+00
      -5.7498374324110080e-01 -3.5094206515414372e-01
      -2.8964909688421658e-01 7.1061564731150417e-01
      2.7788708379399529e-01 -4.9260833702313250e-01
      3.8193162657261420e-01 -2.1136304231884795e-01
      -1.1004703930135065e+00 -8.0048267863713141e-01
      -1.0226068346357283e-02 8.7050571916412456e-01
      -3.3880716797173688e-01 5.1220378199320871e-01
      6.8255350205238341e-01 3.6795273500278008e-01
      3.0941958566010969e-02 9.2424624367932207e-01
      3.2573473500873090e-01 1.4425374267434524e-01
      -2.5691183363589620e-01 5.4573534075947228e-01
      -4.2165291180860914e-01 8.1932987752188191e-01
      -4.6584751586274309e-01 -2.5520466275464193e-01
      -2.6415045584965341e-01 -2.3811580557099760e-01
      3.0392032781287981e-01 5.7060013651240127e-01
      1.5387072454855955e-01 5.3786636740931981e-02
      -3.7516209777489190e-01 -6.0488392597264729e-01
      -1.1901410857888135e+00 -1.1652185471119730e-01
      -3.4851330470465014e-01 -3.3700544550836553e-01
      -8.3691785170771693e-02 6.4232465480319334e-01
      -8.7849438984274761e-02 2.3628355459812339e-01
      -1.0775619292863550e-01 2.1638651945104845e+00
      -5.2609304178407257e-01 -3.7992860977122161e-01
      3.8805649007862919e-01 -1.1359908964526073e+00
      -6.6613429915576072e-01 -4.0386329092221557e-01
      -5.3740345203730666e-02 8.1711112656247697e-01
      3.0745704847059885e-01 -5.8699209961306842e-01
      4.9165391141930848e-01 -1.9802842970260401e-01
      -1.1648824708193277e+00 -5.9276291415470295e-01
      1.1358270008660908e-01 9.7879489642624595e-01
      -4.3732220864983640e-01 7.7690476513863416e-01
      5.1778960939030816e-01 4.0000154030769186e-01
      8.1911666062527269e-02 1.1922492026955440e+00
      4.1770199140729780e-01 1.5783052431246430e-01
      -2.5790663630326055e-01 6.2772562212334615e-01
      -4.3887720313777923e-01 9.3873247505128632e-01
      -5.3031996642821611e-01 -1.3218122714364741e-01
      -1.6694911555167607e-01 -1.8026176121548634e-01
      2.1028461828492628e-01 7.1693885579607353e-01
      2.1651713511809226e-01 7.9456686243994074e-02
      -2.6346793825425446e-01 -6.0146881781988304e-01
      -1.0607102038871363e+00 -1.4281248260221430e-01
      -4.4596463254117169e-01 -1.7258954702203816e-01
      -3.9118581929441398e-02 4.2887392081218717e-01
      2.6955488921186388e-01 1.5119252076959555e-01
      -3.0137904560652132e-02 2.0713934957613760e+00
      -5.2111655652885291e-01 -3.6684460912014044e-01
      3.2174236148155799e-01 -1.1413989258763748e+00
      -6.4437927951721208e-01 -3.8244347181871785e-01
      2.9496392593357218e-01 8.6515186439945790e-01
      4.4388892105278455e-01 -6.0738977952198869e-01
      6.4691020340841077e-01 1.3668895847827770e-02
      -1.1025214408992079e+00 -6.1830482060570757e-01
      3.4762734933352030e-01 9.3640755576163270e-01
      -4.8398159190591039e-01 1.0388104268152836e+00
      4.2677562144574227e-01 5.1600137070143326e-01
      -9.8241101534922576e-02 1.5037665325259923e+00
      5.2196451433528990e-01 1.9207345092351810e-01
      -1.7761735486832503e-01 7.4227704020183005e-01
      -3.6044566149777707e-01 1.1688016377181885e+00
      -5.2131938440149617e-01 -7.4336733269477248e-02
      -1.5243332767714124e-01 -1.4239088832069990e-01
      -3.2411220947762283e-02 6.7804575693296043e-01
      4.2299569214601185e-01 1.1686415037409889e-01
      -2.8206411482243271e-01 -4.5365850625427950e-01
      -8.9339198743620829e-01 -3.5294224557434570e-02
      -4.8712939435395947e-01 5.1159176541302649e-02
      3.7972966121358608e-02 2.6085942147760671e-01
      3.1868517603875135e-01 2.1571687758406847e-02
      1.5158988308623564e-01 1.9839355298708863e+00
      -4.5805771205200635e-01 -3.1245717286877139e-01
      1.4408772006584669e-01 -1.1870877441537049e+00
      -5.7458947271591476e-01 -3.5148404737766492e-01
      2.2975649659158531e-02 8.0410100513651650e-01
      6.3620533414166580e-01 -6.3695946759034239e-01
      8.9576441868105938e-01 2.3301914876268293e-01
      -9.9523818060576397e-01 -4.6624546152267943e-01
      4.9124477653792575e-01 8.7572282338565044e-01
      -4.8978352579228618e-01 1.0257319796471362e+00
      1.9280582371608693e-01 6.2637121240374227e-01
      -2.1366216301966670e-01 1.9311200109007094e+00
      4.3509309012056857e-01 2.6208332480201202e-01
      -9.8944184632146159e-02 6.4617647380292476e-01
      -2.7677015850659703e-01 1.2511816279302350e+00
      -3.8973526438625972e-01 -8.3396685804426426e-02
      -1.2963825898526402e-01 -4.0540631168404073e-01
      -1.0760011924594672e-01 4.4782785177573065e-01
      5.8519201662467202e-01 1.5190044304820521e-01
      -4.0343546734089270e-01 -2.7673966118049220e-01
      -7.5753250548654161e-01 5.4636940078515210e-02
      -3.1477074476637351e-01 7.1806706170164398e-03
      8.1801639211489460e-02 3.6692275597066581e-01
      2.5794400308622717e-01 2.2758108260618738e-02
      2.8498878708662251e-01 1.8256654010599245e+00
      -4.7071946065869902e-01 -3.6983196752293374e-01
      6.6061659533080505e-02 -1.1494239868140774e+00
      -6.0254872971268936e-01 -3.2827066483091832e-01
      -4.4978451920983259e-01 7.5252088991135058e-01
      5.4254305238189571e-01 -9.6303254364956636e-01
      9.9476204615724995e-01 4.0523334339176414e-01
      -9.5452009077741307e-01 1.0689003601280775e-01
      4.6553590198085898e-01 9.3451305691480180e-01
      -4.0477191897378961e-01 9.3206097983031166e-01
      -2.4141920567716660e-01 6.0369914194926766e-01
      3.3814460674116448e-02 1.9872688147545323e+00
      1.6014707474712617e-01 3.5091583988341141e-01
      5.8329438968138358e-02 3.6949820160793390e-01
      -2.1066245857239815e-01 1.3817941776454639e+00
      -1.9679371719477234e-01 -2.7688649551779404e-01
      -4.5399169889036223e-02 -4.4701685806942898e-01
      1.2141491250346599e-01 2.3339680592283876e-01
      5.0950523087513533e-01 3.1908632670541986e-01
      -5.2875397857686213e-01 -1.3009672697721922e-01
      -1.1096602055530098e+00 -1.0720334077889312e-01
      -2.2386718013031304e-01 -3.2564501210559871e-01
      -2.0065818798711688e-01 5.8292778377275800e-01
      1.4904960086575561e-01 7.1558820923037184e-02
      5.2374966282477242e-01 1.6537691292678662e+00
      -3.6638858923900580e-01 -5.9997506481128260e-01
      4.3735564331323267e-03 -1.1426321159820527e+00
      -7.7080937850909981e-01 -3.6403699265183426e-01
      -6.8417473244717930e-01 8.2813368954729216e-01
      3.7323123230527061e-01 -1.1115053395348484e+00
      1.0173647156235262e+00 6.6027374480879908e-01
      -7.9591167790365203e-01 5.2913230777318887e-01
      4.0010480796085190e-01 1.0171304972364910e+00
      -3.3345516898634708e-01 9.7438317963969956e-01
      -6.1664204622444818e-01 4.7446114728894140e-01
      3.0860301249115429e-01 1.6259781386586107e+00
      -2.4679708314081183e-01 4.1376432154961040e-01
      7.6037250327905731e-02 2.1367468565736147e-01
      -3.1339636745500227e-01 1.7718264268985815e+00
      -9.3756334512867578e-02 -3.3273485078139442e-01
      4.3659084565261283e-02 -4.7696383244240159e-01
      2.6940432957260463e-01 1.7889468291713123e-01
      3.6545857164116791e-01 5.5894715589513810e-01
      -5.8376966185711465e-01 -1.8688487500152590e-01
      -1.4303203258684152e+00 -2.6785401908191581e-01
      -3.6328353907937155e-01 -7.8697965235273537e-01
      -5.5840381825320717e-01 6.3882038915100359e-01
      -1.0183070343109951e-01 2.8456059258463373e-01
      7.6817647404752409e-01 1.3688645836773516e+00
      -1.0326352267918866e-01 -7.4583134129343354e-01
      -6.2418081045036489e-02 -1.1873559489730166e+00
      -7.4495816276579696e-01 -4.8471844571566869e-01
      -5.2186507075996280e-01 9.2064396817703287e-01
      1.3386176353721224e-01 -8.0635874025163679e-01
      9.3653131266332423e-01 9.2636745982896684e-01
      -4.0328831955275685e-01 5.2875709977732077e-01
      3.7450861947581143e-01 1.0220329794298424e+00
      -3.8640196906988367e-01 1.0304042867356620e+00
      -7.7833284667453662e-01 2.4555822567703731e-01
      4.4605345286425607e-01 1.0531343377570179e+00
      -5.2495121669423284e-01 4.3175187430754514e-01
      1.4962737945687843e-02 3.3350165701845974e-01
      -5.4955378044788117e-01 2.1602788054012434e+00
      1.0844602149369374e-01 -2.4453664534821454e-02
      -2.9412545256412945e-02 -5.3809289422655648e-01
      2.8087995558650453e-01 3.5414343125654180e-03
      3.3959888636284502e-01 5.5419408284933436e-01
      -6.7603339398709350e-01 -4.5690432144115117e-01
      -1.4624670855377193e+00 -3.3769581778750074e-01
      -6.1557140764408103e-01 -9.9054562603899565e-01
      -5.0864880239052312e-01 3.7552928257749973e-01
      -3.2631243888218980e-01 6.6578303657036175e-01
      9.0466589852613166e-01 1.0003033804026380e+00
      1.1863504071720414e-01 -5.5741203202231171e-01
      1.6178437534153911e-01 -1.0737690581066328e+00
      -3.2625975937385254e-01 -4.5569320039437533e-01
      4.5753816128926622e-02 8.3404589197524381e-01
      -1.4103012660467093e-01 -3.4363906124786259e-01
      6.1081950201608604e-01 8.1475261708099656e-01
      2.9642925417017171e-02 6.5949213418548425e-01
      3.8826277151315786e-01 9.4626715057893596e-01
      -4.0930866946901429e-01 1.0929912110653346e+00
      -7.1912294028460810e-01 -2.4159511566307373e-01
      2.4485727854095454e-01 6.3064060003886824e-01
      -5.3135343409047686e-01 2.3788136264503384e-01
      -2.0878541245259963e-01 4.9201047349487342e-01
      -6.0618733336068109e-01 1.7835164626099429e+00
      3.1127522663106927e-01 1.7893714241261516e-01
      -2.1998470383615693e-01 -3.7841279387993210e-01
      6.4192612560098017e-01 -1.9907791464556004e-01
      3.7686303944096200e-01 1.8349484783324957e-01
      -7.1903675039350645e-01 -3.3042940458289888e-01
      -1.3752127859862828e+00 -1.3259588841926909e-01
      -5.0817783429038610e-01 -7.3330802812652029e-01
      -1.4709342352245822e-01 2.8089440995273773e-01
      -4.8541916427766674e-01 9.5784225255651090e-01
      1.2544682226889305e+00 3.1826892462300271e-01
      2.6615224578295860e-01 1.1713042399196870e-01
      1.8683136138742951e-01 -6.1254875188231306e-01
      1.9544797931252586e-01 -2.1967007082994683e-01
      3.8919719115675805e-01 8.3854149420051205e-01
      -4.9403608010029626e-01 2.3947024655053037e-01
      4.0979027551021718e-01 4.1846907054306270e-01
      4.7925871715416885e-01 1.0432290120931940e+00
      3.4044494300184158e-01 7.7787749099131731e-01
      -2.0272853905217614e-01 6.7840330871317100e-01
      -3.2059383103395567e-01 -9.0189900798498690e-01
      -2.1399914871101242e-02 5.5342529177087339e-02
      -3.5843804185398781e-01 -1.1395466917841694e-01
      -6.8266167722221982e-01 3.5571382867481893e-01
      -4.2001071991610051e-01 8.0043439633808200e-01
      5.2813458224445742e-01 2.4616585940981051e-01
      -3.3533738133085189e-01 -7.7565395445602633e-02
      1.2641907144102253e+00 -2.4835309327821750e-01
      2.2887196984939051e-01 -3.2512039631868983e-01
      -2.9084634512732643e-01 1.6312960209987057e-01
      -8.9311826619799795e-01 9.5708033139194015e-02
      -2.4688630990442323e-01 -3.3948262405273577e-01
      3.6770178584511398e-02 1.6523009122679594e-01
      -5.6222099896498023e-01 9.7098577697705357e-01
      1.3706466467932774e+00 -3.7272317471074812e-01
      4.3840473616369963e-01 9.1826274526311868e-01
      -3.1402427702390118e-01 -3.1561805381739577e-01
      3.3355454738113577e-01 2.7862944478187258e-02
      2.5468435918970500e-01 7.4933333502318022e-01
      -5.9334691938998463e-01 5.0377029311859656e-01
      4.1752636479033867e-01 1.2128472241523897e-01
      7.7256003534345885e-01 1.2037933278555437e+00
      3.2802290773942783e-02 5.7504210924295418e-01
      7.4979975847457678e-02 2.6042843455306675e-01
      -4.9117702325129613e-03 -1.2073898966921839e+00
      -4.8076300283238324e-02 -8.5529514486734504e-01
      -4.0932306249096667e-01 -1.5620821383932512e-01
      -1.0665571293417926e+00 2.7764222408676775e-01
      -3.0529266386324994e-01 -2.3935643318517008e-01
      5.7576326319653193e-01 5.2072347681246989e-01
      -2.9059698006804663e-01 -7.2405842247038416e-02
      1.4729692805671590e+00 -2.2741618335555705e-01
      -1.2119266351936177e-01 -5.8984633566757783e-01
      1.5772860715628201e-01 4.8431392570606574e-01
      -1.6691941238006844e-01 -1.2783340805157908e-03
      -2.0639228229943335e-01 -4.2303548289432519e-01
      -4.7586836588828924e-02 -1.8988488290613739e-01
      -4.0630424544965071e-01 9.5663545551600571e-01
      1.5281453947109773e+00 -6.1216322472638229e-01
      8.1498073092095880e-01 1.3287596766147618e+00
      -4.8649044068311087e-01 -4.0592033003581912e-01
      4.0994462497039130e-01 1.5471923674261343e-01
      4.4604412689434397e-01 6.8781859270041723e-01
      -3.1184741551258155e-01 4.6887024006010392e-01
      4.5646669740453460e-01 -1.7137573485695789e-02
      7.7333093445348189e-01 1.0348041874304488e+00
      -5.1861305860399209e-01 3.7585175625751488e-01
      2.7090762110796535e-01 4.5210969104859366e-01
      7.2008122000060723e-02 -1.2243686065909813e+00
      -7.4060419369756672e-02 -1.4410111897516522e+00
      -1.0774248214070212e+00 2.7907002462851809e-02
      -9.1861109976299704e-01 2.8578139866799585e-01
      -2.6258375276550550e-01 -8.3288321268376331e-01
      5.0945406206310040e-01 9.5402546175244374e-01
      -2.8980458043966234e-01 -4.4039131650752777e-01
      1.2105913637105261e+00 -3.0216398377853232e-01
      -5.5662631403884510e-01 -7.0737380518017468e-01
      3.0609928081171284e-01 8.2710844233553749e-01
      3.1735234705533522e-01 -7.7181485383853610e-02
      -4.3970617676478430e-01 -5.8194728030439125e-01
      3.4514324246382208e-03 -4.4787234881810817e-01
      -2.5383665025180724e-01 1.0133910029947613e+00
      1.4348338228341173e+00 -6.4960896180322847e-01
      8.3854389743924851e-01 1.3000145296324916e+00
      -3.8459814986551655e-01 -5.4701271589208456e-01
      3.7209752111244970e-01 1.4293134781070518e-01
      4.9584872975194949e-01 5.0760911402843856e-01
      -3.5470850075360955e-01 5.7420185967230708e-01
      5.3061490274532752e-01 -1.0376337177775873e-01
      6.7712211781872289e-01 7.2045838255868810e-01
      -7.8018419968085728e-01 1.5945580518711014e-01
      1.7831863653963229e-01 6.8235971054944089e-01
      5.4804546562195695e-02 -1.3024513548599190e+00
      -7.9945535698405040e-02 -1.8270540600369294e+00
      -1.4817060042851649e+00 2.7698060708260469e-01
      -4.5669525140237915e-01 2.9475343180391272e-01
      -4.1497519397648697e-01 -1.0765751769515912e+00
      2.9864386513933011e-01 1.2506573439111497e+00
      -4.1472452125888781e-01 -5.3776634814948177e-01
      8.1355237356353827e-01 -2.5859814737683218e-01
      -8.1478861925369961e-01 -6.5197118687932099e-01
      5.2036885379734721e-01 8.9388030677158292e-01
      4.4793028293633813e-01 -2.1330001145080996e-01
      -7.0456316665731411e-01 -2.4731584771060908e-01
      -1.6933757830271196e-02 -6.6731189635306920e-01
      -2.1254951142137976e-01 1.1398833370092576e+00
      7.3337672336057524e-01 -5.5994284268980199e-01
      5.6257395312509628e-01 1.2232936352334005e+00
      -3.8738379140299450e-01 -5.1111535003643094e-01
      2.0039913547869437e-01 5.1517905200593121e-02
      2.5969694069572719e-01 3.1702477672982521e-01
      -3.7314428236498626e-01 5.8445580519496676e-01
      3.4045716325622050e-01 -2.9187126941555391e-01
      8.9568976030458847e-01 8.3532553444964863e-01
      -7.3132607302483843e-01 1.7994747348264287e-01
      8.8983153321609568e-02 6.1572189972753133e-01
      -1.2386409512356683e-01 -1.2896597699981001e+00
      -1.5680754462899951e-01 -2.1600301390223153e+00
      -1.4951476302006077e+00 5.0684556599626807e-01
      -4.9714054607932895e-01 3.0661655657211889e-01
      -6.7708750172967447e-01 -8.8774355015008866e-01
      -4.2164132074223551e-02 1.4895014442929608e+00
      -4.0550023840416721e-01 -3.2822813519853072e-01
      7.2620088455059528e-01 -5.2843653473182442e-02
      -9.4013642324485402e-01 -5.4754636643744858e-01
      4.9894824559372430e-01 6.4083342681788458e-01
      3.4655080707109759e-01 -4.4973423570910354e-01
      -6.8961681268882080e-01 -3.3922718430219534e-01
      -1.5168038517994947e-01 -1.0567653543677928e+00
      -1.2879242558093421e-01 1.8603501277427423e-01
      1.5831067070505439e-01 -7.3610588319739523e-01
      6.6699183080726598e-01 2.0741581905257273e-01
      -1.0125037816251345e+00 -2.5803861916495757e-01
      2.2186218020644285e-01 2.4319488491552667e-02
      2.1319779686041658e+00 1.0306828076187387e+00
      1.2780322206776956e-01 1.5099820246247639e+00
      -3.6890432217956048e+00 -7.0235145476636041e-01
      1.3313945412391532e+00 -5.8684934273855605e-01
      2.1609780556702876e-01 -2.9849341993672995e-01
      -5.3521564558713826e-02 -6.7650964583025086e-01
      4.6576495461489759e-01 -6.8002162762792084e-01
      4.1581482414453497e-01 -9.6248324023955534e-01
      3.3386736988285853e-01 -7.4943976348119112e-01
      -5.7409087358651301e-01 -7.1504996355949280e-01
      -5.7478176229002720e-01 -4.7253814970421217e+00
      7.3949448669062690e-01 8.0449513140006468e-01
      -2.1691445105116811e-02 -1.1093284656356563e+00
      7.8790544795377271e-01 3.7559575077011959e-01
      -1.3036197183003875e-01 -6.2643748039554425e-01
      2.2629278210982712e-01 -4.8317547843929720e-01
      1.3102331563878509e+00 3.9856389619171745e-01
      8.1604039051960275e-01 -4.1803915735576014e-01
      -3.9125643956492695e-01 -1.2770021331713719e+00
      -2.2183700238179835e-03 4.4495016695604445e-01
      1.8701275187868291e-01 -4.1303291796680436e-01
      4.2212047179981710e-01 1.5868935521308233e-01
      -6.7946743556433498e-01 -7.7642440787626876e-01
      6.4188063225349756e-02 -6.3494943467061837e-01
      2.5345996247879707e+00 8.8018711724479015e-01
      -6.5528131276558037e-03 1.2031452290058389e+00
      -3.5305095025875817e+00 -6.2104124093140101e-01
      1.2739496315406811e+00 -3.6356490315266504e-01
      2.5309595232635523e-01 -4.0796356524057914e-01
      -2.9435848641710177e-01 -2.0187885417397272e-01
      6.4828035206149370e-01 -4.9078492918936067e-01
      6.5560689414298412e-01 -7.0867353956617363e-01
      1.5694667001369206e-01 -6.4006911896583008e-01
      -4.8837193430013720e-01 -2.1772271803812651e-01
      -6.9491303153829265e-01 -3.9032388757503997e+00
      1.0555034303558536e-01 2.5987070504376036e-01
      6.7475682423108752e-03 3.1488673565170022e-01
      1.1153107570603287e+00 2.2011061595457279e-01
      3.3642025516458812e-01 -2.5262597440540258e-01
      3.0453235112706034e-01 -3.8781395208396724e-01
      1.2532566943110224e+00 1.6525195189459593e-01
      9.5006910639075104e-01 -6.0727038396011301e-01
      -5.0909573120525442e-01 -1.0666129671415754e+00
      6.7370922141404263e-02 6.8268775954780447e-01
      2.9424113576075256e-01 1.3911905858644091e-01
      8.6541688040971107e-02 9.1612307143829799e-02
      -3.6244639308909543e-01 -1.1696775728426043e+00
      -1.4326274053072605e-01 -1.1898349429494235e+00
      2.6521301675193474e+00 7.1463152233015703e-01
      -2.1246157224342421e-01 8.5133508556512782e-01
      -2.6341735468488552e+00 -5.1760488006294780e-01
      9.2758576521060943e-01 -9.0438590052217147e-02
      2.6056257634894214e-01 -3.9913304696225249e-01
      -4.4831631937998928e-01 3.1777288428805334e-01
      8.4059624507294439e-01 -1.7921283236779520e-01
      8.6001439002461733e-01 -2.3084151749599346e-01
      8.3680995040845807e-02 -4.0093907316940469e-01
      -4.7412072676453421e-01 3.7924094059639607e-01
      -7.3578543802872132e-01 -2.1036687812073409e+00
      -4.6138842615005943e-01 -3.4456133709318559e-01
      -4.5245193541161854e-02 1.6253571559472637e+00
      1.2414633932349077e+00 1.2493472946129347e-01
      7.1576064199241796e-01 1.1158100424952133e-01
      2.7674472425677132e-01 -3.0279987236122691e-01
      7.8478054539548947e-01 -9.4097542045572372e-02
      9.0726883229125665e-01 -6.4325450516685834e-01
      -5.4843551890120201e-01 -7.0626624035763153e-01
      -1.6910126858573274e-01 7.6669084832335921e-01
      2.2888411976287817e-01 7.6648451280040941e-01
      -1.5830195037362008e-01 -6.9558453498251446e-02
      -3.5487562909543291e-01 -1.1126303044341879e+00
      -1.9681611687032946e-01 -1.1090322435251012e+00
      2.5203101371108043e+00 8.1751871599762072e-01
      -5.5757136458712428e-02 6.6031175961763255e-01
      -1.5354117632005655e+00 -5.8406369606794528e-01
      4.5006482738096126e-01 -1.9593079346910358e-01
      2.3668846562138898e-01 -2.9773095677444933e-01
      -2.5635053519016854e-01 5.9672656759134524e-01
      8.3206436433229736e-01 2.5817501006312632e-01
      6.4512825245049377e-01 3.8846131441547715e-01
      1.0249267063474794e-01 -4.5428720290553193e-01
      -5.1366253118708205e-01 9.7513511965098487e-01
      -1.0462015393993598e+00 -4.4490420365231831e-01
      -4.8739946057805594e-01 -4.9054231905948520e-01
      -5.2220114805353435e-02 1.8620766831777891e+00
      1.2899571150249638e+00 3.5342959157671722e-01
      1.1025487354216328e+00 2.6188314080287217e-01
      -3.0270811152452037e-01 -4.7180458058311919e-01
      -4.3858653743684018e-03 -3.4338373988515269e-01
      9.9598474439784768e-01 -7.4051515277835334e-01
      -4.3299198814676193e-01 -3.5813405822741445e-01
      -5.3687600640432975e-01 4.1331107970503489e-01
      -1.0499110339122670e-02 1.1562701312984378e+00
      -4.2335656635924102e-01 -1.5096108797630997e-01
      -2.5752230507911178e-01 -8.0129636562186568e-01
      -3.1813604770900250e-01 -7.1992668223684653e-01
      2.0955140749507768e+00 1.0712187229130841e+00
      2.5941217890754142e-01 3.6035163158888872e-01
      -9.7574266262793113e-02 -5.3034667316236273e-01
      3.4619185278001494e-02 -3.8766014275258293e-01
      1.3567881143290187e-02 1.4179598009936461e-02
      -1.4532791965626132e-01 8.8044880802785308e-01
      5.4299690819831692e-01 5.7336216617582980e-01
      1.7147395047884451e-01 8.6800200124650406e-01
      -3.3229617741617985e-02 -5.2476038023130567e-01
      -4.6335231949108013e-01 1.2322637045924727e+00
      -8.2213774317133181e-01 7.2097340148388156e-01
      -4.6329802648417318e-01 -4.6387653489717301e-01
      -1.7838143701993828e-01 1.6170424114465056e+00
      1.2877361724273790e+00 4.8590754718793577e-01
      1.1483934877331006e+00 2.9360969381019181e-01
      -5.6892431695361634e-01 -5.7671072351465658e-01
      -4.4120296721500052e-01 -5.4730058282818927e-01
      8.2058029071395522e-01 -7.5855118219818951e-01
      -1.7365282786465802e-01 4.3627733385689080e-02
      -6.7757256953425538e-01 -2.7749516761689078e-02
      4.8831716126657050e-03 1.4173549849291616e+00
      -4.3588033356293931e-01 -6.0647172430995662e-02
      -2.0288547668806420e-01 -7.6247806739335067e-01
      -5.5903487292193998e-01 -5.6361344171809402e-01
      1.8785109302261718e+00 1.3679929085497742e+00
      3.1419228027873708e-01 2.0061497302952983e-01
      7.2440780192536569e-01 -3.6732736327227372e-01
      -3.2027154497291160e-01 -5.0022703881516106e-01
      -1.5839914230026200e-01 5.4873446765968936e-01
      8.6101789209849337e-03 1.2787453336159127e+00
      3.1822491001936498e-01 6.2665200312588520e-01
      -2.9265792100335297e-01 9.6175052744861922e-01
      -1.7579924934408023e-01 -4.4530006494908675e-01
      -3.5725895497009474e-01 1.1021495449544054e+00
      -4.5321120719925906e-01 8.4671952009239171e-01
      -4.5602303288463142e-01 -3.0696836949408507e-01
      -4.6111563602479122e-01 1.2155669826509514e+00
      1.1767395196192081e+00 4.4892692637336162e-01
      8.0376526751013677e-01 2.2028993893149684e-01
      -4.3365219537855820e-01 -5.3341133096817428e-01
      -4.1605693226700108e-01 -5.0095509218408918e-01
      5.3051517015303629e-01 -5.1003988405543021e-01
      5.7842801729003218e-02 2.0823057617779497e-01
      -6.0625976481725352e-01 -2.3376053606254882e-01
      1.6094658627409070e-01 1.6557775231964373e+00
      -3.8071084574172187e-01 1.3600487610457339e-02
      -1.0647308922682409e-01 -8.4226364409854038e-01
      -6.2583270726998219e-01 -5.2985257727455681e-01
      1.7484551359464027e+00 1.3909297428831213e+00
      4.3657185212123134e-01 2.4248928517450977e-01
      8.7226805747080660e-01 -2.9601339436054180e-01
      -6.3045214704640640e-01 -5.3275977666723107e-01
      -2.0078501169586291e-01 9.3939931937809296e-01
      7.6578910443932460e-02 1.5336895724902215e+00
      2.1315731120221837e-01 5.4356646897399408e-01
      -4.8225402802296480e-01 8.4460614035240378e-01
      -1.5917725263944676e-02 -2.6443156930231709e-01
      -2.2716882412083506e-01 1.0410144643544825e+00
      -3.2991038092659414e-01 5.8145237452525733e-01
      -4.5060311869761338e-01 -1.0760429021159666e-01
      -5.8081783988132207e-01 8.2352594752656094e-01
      1.0457163211384612e+00 4.8160708618665676e-01
      4.8903431804751057e-01 2.1417467502980550e-01
      -3.4968086769757356e-01 -4.0327511091942747e-01
      -2.9762028843025923e-01 -2.9189015521502126e-01
      3.4453186196259655e-01 -1.9961795573507893e-01
      2.2314540717409254e-01 3.1023316787635358e-01
      -4.7115637291341322e-01 -2.8163549695775958e-01
      2.3117151856208859e-01 1.6611889577078653e+00
      -3.4503530167610313e-01 7.3857132458342977e-03
      4.7097167285631195e-02 -9.7065567949374210e-01
      -6.0415223353472669e-01 -4.8451482828837267e-01
      1.7537051574886053e+00 1.2920441126517415e+00
      5.0414915643711555e-01 3.7828817034999906e-01
      7.4210426744887847e-01 -1.5744700788522090e-01
      -7.1008991884707551e-01 -4.7086893601054991e-01
      -1.7247670260694534e-01 1.1329124171443454e+00
      -8.1034727094599746e-02 1.3673645067286482e+00
      9.2076159807903984e-02 4.4497048938405859e-01
      -4.3068660860104779e-01 9.7211420529178405e-01
      7.8163630739116849e-02 -1.4358270886459379e-01
      -1.8357056424128548e-01 9.7249291092837842e-01
      -3.4722328211776332e-01 3.1088769706197955e-01
      -3.6978427022006977e-01 3.2810858062801228e-02
      -3.8662903801688936e-01 3.4106348908929468e-01
      8.9376071265137791e-01 5.4059871440480400e-01
      3.0718431991105666e-01 1.9998736028335054e-01
